{"learner":{"attributes":{"scikit_learn":"{\"_estimator_type\": \"classifier\"}"},"feature_names":[],"feature_types":[],"gradient_booster":{"model":{"gbtree_model_param":{"num_parallel_tree":"1","num_trees":"1800"},"iteration_indptr":[0,3,6,9,12,15,18,21,24,27,30,33,36,39,42,45,48,51,54,57,60,63,66,69,72,75,78,81,84,87,90,93,96,99,102,105,108,111,114,117,120,123,126,129,132,135,138,141,144,147,150,153,156,159,162,165,168,171,174,177,180,183,186,189,192,195,198,201,204,207,210,213,216,219,222,225,228,231,234,237,240,243,246,249,252,255,258,261,264,267,270,273,276,279,282,285,288,291,294,297,300,303,306,309,312,315,318,321,324,327,330,333,336,339,342,345,348,351,354,357,360,363,366,369,372,375,378,381,384,387,390,393,396,399,402,405,408,411,414,417,420,423,426,429,432,435,438,441,444,447,450,453,456,459,462,465,468,471,474,477,480,483,486,489,492,495,498,501,504,507,510,513,516,519,522,525,528,531,534,537,540,543,546,549,552,555,558,561,564,567,570,573,576,579,582,585,588,591,594,597,600,603,606,609,612,615,618,621,624,627,630,633,636,639,642,645,648,651,654,657,660,663,666,669,672,675,678,681,684,687,690,693,696,699,702,705,708,711,714,717,720,723,726,729,732,735,738,741,744,747,750,753,756,759,762,765,768,771,774,777,780,783,786,789,792,795,798,801,804,807,810,813,816,819,822,825,828,831,834,837,840,843,846,849,852,855,858,861,864,867,870,873,876,879,882,885,888,891,894,897,900,903,906,909,912,915,918,921,924,927,930,933,936,939,942,945,948,951,954,957,960,963,966,969,972,975,978,981,984,987,990,993,996,999,1002,1005,1008,1011,1014,1017,1020,1023,1026,1029,1032,1035,1038,1041,1044,1047,1050,1053,1056,1059,1062,1065,1068,1071,1074,1077,1080,1083,1086,1089,1092,1095,1098,1101,1104,1107,1110,1113,1116,1119,1122,1125,1128,1131,1134,1137,1140,1143,1146,1149,1152,1155,1158,1161,1164,1167,1170,1173,1176,1179,1182,1185,1188,1191,1194,1197,1200,1203,1206,1209,1212,1215,1218,1221,1224,1227,1230,1233,1236,1239,1242,1245,1248,1251,1254,1257,1260,1263,1266,1269,1272,1275,1278,1281,1284,1287,1290,1293,1296,1299,1302,1305,1308,1311,1314,1317,1320,1323,1326,1329,1332,1335,1338,1341,1344,1347,1350,1353,1356,1359,1362,1365,1368,1371,1374,1377,1380,1383,1386,1389,1392,1395,1398,1401,1404,1407,1410,1413,1416,1419,1422,1425,1428,1431,1434,1437,1440,1443,1446,1449,1452,1455,1458,1461,1464,1467,1470,1473,1476,1479,1482,1485,1488,1491,1494,1497,1500,1503,1506,1509,1512,1515,1518,1521,1524,1527,1530,1533,1536,1539,1542,1545,1548,1551,1554,1557,1560,1563,1566,1569,1572,1575,1578,1581,1584,1587,1590,1593,1596,1599,1602,1605,1608,1611,1614,1617,1620,1623,1626,1629,1632,1635,1638,1641,1644,1647,1650,1653,1656,1659,1662,1665,1668,1671,1674,1677,1680,1683,1686,1689,1692,1695,1698,1701,1704,1707,1710,1713,1716,1719,1722,1725,1728,1731,1734,1737,1740,1743,1746,1749,1752,1755,1758,1761,1764,1767,1770,1773,1776,1779,1782,1785,1788,1791,1794,1797,1800],"tree_info":[0,1,2,0,1,2,0,1,2,0,1,2,0,1,2,0,1,2,0,1,2,0,1,2,0,1,2,0,1,2,0,1,2,0,1,2,0,1,2,0,1,2,0,1,2,0,1,2,0,1,2,0,1,2,0,1,2,0,1,2,0,1,2,0,1,2,0,1,2,0,1,2,0,1,2,0,1,2,0,1,2,0,1,2,0,1,2,0,1,2,0,1,2,0,1,2,0,1,2,0,1,2,0,1,2,0,1,2,0,1,2,0,1,2,0,1,2,0,1,2,0,1,2,0,1,2,0,1,2,0,1,2,0,1,2,0,1,2,0,1,2,0,1,2,0,1,2,0,1,2,0,1,2,0,1,2,0,1,2,0,1,2,0,1,2,0,1,2,0,1,2,0,1,2,0,1,2,0,1,2,0,1,2,0,1,2,0,1,2,0,1,2,0,1,2,0,1,2,0,1,2,0,1,2,0,1,2,0,1,2,0,1,2,0,1,2,0,1,2,0,1,2,0,1,2,0,1,2,0,1,2,0,1,2,0,1,2,0,1,2,0,1,2,0,1,2,0,1,2,0,1,2,0,1,2,0,1,2,0,1,2,0,1,2,0,1,2,0,1,2,0,1,2,0,1,2,0,1,2,0,1,2,0,1,2,0,1,2,0,1,2,0,1,2,0,1,2,0,1,2,0,1,2,0,1,2,0,1,2,0,1,2,0,1,2,0,1,2,0,1,2,0,1,2,0,1,2,0,1,2,0,1,2,0,1,2,0,1,2,0,1,2,0,1,2,0,1,2,0,1,2,0,1,2,0,1,2,0,1,2,0,1,2,0,1,2,0,1,2,0,1,2,0,1,2,0,1,2,0,1,2,0,1,2,0,1,2,0,1,2,0,1,2,0,1,2,0,1,2,0,1,2,0,1,2,0,1,2,0,1,2,0,1,2,0,1,2,0,1,2,0,1,2,0,1,2,0,1,2,0,1,2,0,1,2,0,1,2,0,1,2,0,1,2,0,1,2,0,1,2,0,1,2,0,1,2,0,1,2,0,1,2,0,1,2,0,1,2,0,1,2,0,1,2,0,1,2,0,1,2,0,1,2,0,1,2,0,1,2,0,1,2,0,1,2,0,1,2,0,1,2,0,1,2,0,1,2,0,1,2,0,1,2,0,1,2,0,1,2,0,1,2,0,1,2,0,1,2,0,1,2,0,1,2,0,1,2,0,1,2,0,1,2,0,1,2,0,1,2,0,1,2,0,1,2,0,1,2,0,1,2,0,1,2,0,1,2,0,1,2,0,1,2,0,1,2,0,1,2,0,1,2,0,1,2,0,1,2,0,1,2,0,1,2,0,1,2,0,1,2,0,1,2,0,1,2,0,1,2,0,1,2,0,1,2,0,1,2,0,1,2,0,1,2,0,1,2,0,1,2,0,1,2,0,1,2,0,1,2,0,1,2,0,1,2,0,1,2,0,1,2,0,1,2,0,1,2,0,1,2,0,1,2,0,1,2,0,1,2,0,1,2,0,1,2,0,1,2,0,1,2,0,1,2,0,1,2,0,1,2,0,1,2,0,1,2,0,1,2,0,1,2,0,1,2,0,1,2,0,1,2,0,1,2,0,1,2,0,1,2,0,1,2,0,1,2,0,1,2,0,1,2,0,1,2,0,1,2,0,1,2,0,1,2,0,1,2,0,1,2,0,1,2,0,1,2,0,1,2,0,1,2,0,1,2,0,1,2,0,1,2,0,1,2,0,1,2,0,1,2,0,1,2,0,1,2,0,1,2,0,1,2,0,1,2,0,1,2,0,1,2,0,1,2,0,1,2,0,1,2,0,1,2,0,1,2,0,1,2,0,1,2,0,1,2,0,1,2,0,1,2,0,1,2,0,1,2,0,1,2,0,1,2,0,1,2,0,1,2,0,1,2,0,1,2,0,1,2,0,1,2,0,1,2,0,1,2,0,1,2,0,1,2,0,1,2,0,1,2,0,1,2,0,1,2,0,1,2,0,1,2,0,1,2,0,1,2,0,1,2,0,1,2,0,1,2,0,1,2,0,1,2,0,1,2,0,1,2,0,1,2,0,1,2,0,1,2,0,1,2,0,1,2,0,1,2,0,1,2,0,1,2,0,1,2,0,1,2,0,1,2,0,1,2,0,1,2,0,1,2,0,1,2,0,1,2,0,1,2,0,1,2,0,1,2,0,1,2,0,1,2,0,1,2,0,1,2,0,1,2,0,1,2,0,1,2,0,1,2,0,1,2,0,1,2,0,1,2,0,1,2,0,1,2,0,1,2,0,1,2,0,1,2,0,1,2,0,1,2,0,1,2,0,1,2,0,1,2,0,1,2,0,1,2,0,1,2,0,1,2,0,1,2,0,1,2,0,1,2,0,1,2,0,1,2,0,1,2,0,1,2,0,1,2,0,1,2,0,1,2,0,1,2,0,1,2,0,1,2,0,1,2,0,1,2,0,1,2,0,1,2,0,1,2,0,1,2,0,1,2,0,1,2,0,1,2,0,1,2,0,1,2,0,1,2,0,1,2,0,1,2,0,1,2,0,1,2,0,1,2,0,1,2,0,1,2,0,1,2,0,1,2,0,1,2,0,1,2,0,1,2,0,1,2,0,1,2,0,1,2,0,1,2,0,1,2,0,1,2,0,1,2,0,1,2,0,1,2,0,1,2,0,1,2,0,1,2,0,1,2,0,1,2,0,1,2,0,1,2,0,1,2,0,1,2,0,1,2,0,1,2,0,1,2,0,1,2,0,1,2,0,1,2,0,1,2,0,1,2,0,1,2,0,1,2,0,1,2,0,1,2,0,1,2,0,1,2,0,1,2,0,1,2,0,1,2,0,1,2,0,1,2,0,1,2,0,1,2,0,1,2,0,1,2,0,1,2,0,1,2,0,1,2,0,1,2,0,1,2,0,1,2,0,1,2,0,1,2,0,1,2,0,1,2,0,1,2,0,1,2,0,1,2,0,1,2,0,1,2,0,1,2,0,1,2,0,1,2,0,1,2,0,1,2,0,1,2,0,1,2,0,1,2,0,1,2,0,1,2,0,1,2,0,1,2,0,1,2,0,1,2,0,1,2,0,1,2,0,1,2,0,1,2,0,1,2,0,1,2,0,1,2,0,1,2,0,1,2,0,1,2,0,1,2,0,1,2,0,1,2,0,1,2,0,1,2,0,1,2,0,1,2,0,1,2,0,1,2,0,1,2,0,1,2,0,1,2,0,1,2,0,1,2,0,1,2,0,1,2,0,1,2,0,1,2,0,1,2,0,1,2,0,1,2,0,1,2,0,1,2,0,1,2,0,1,2,0,1,2,0,1,2,0,1,2,0,1,2,0,1,2,0,1,2,0,1,2,0,1,2,0,1,2,0,1,2,0,1,2,0,1,2,0,1,2,0,1,2,0,1,2,0,1,2,0,1,2,0,1,2,0,1,2,0,1,2,0,1,2,0,1,2,0,1,2,0,1,2,0,1,2,0,1,2,0,1,2,0,1,2,0,1,2,0,1,2,0,1,2,0,1,2,0,1,2,0,1,2,0,1,2,0,1,2,0,1,2,0,1,2,0,1,2,0,1,2,0,1,2,0,1,2,0,1,2,0,1,2,0,1,2,0,1,2,0,1,2,0,1,2,0,1,2,0,1,2,0,1,2,0,1,2,0,1,2,0,1,2,0,1,2,0,1,2,0,1,2,0,1,2,0,1,2,0,1,2,0,1,2,0,1,2,0,1,2,0,1,2,0,1,2,0,1,2,0,1,2,0,1,2,0,1,2,0,1,2,0,1,2,0,1,2,0,1,2,0,1,2,0,1,2,0,1,2,0,1,2,0,1,2,0,1,2,0,1,2,0,1,2,0,1,2,0,1,2,0,1,2,0,1,2,0,1,2,0,1,2,0,1,2,0,1,2,0,1,2,0,1,2,0,1,2,0,1,2,0,1,2,0,1,2,0,1,2,0,1,2,0,1,2,0,1,2,0,1,2,0,1,2,0,1,2,0,1,2,0,1,2,0,1,2,0,1,2,0,1,2,0,1,2],"trees":[{"base_weights":[3.9117435E-1,1.1063594E0,-3.60035E-1,1.4199904E0,6.7298883E-1,2.0661153E-1,-6.209095E-1,1.4607491E0,7.659574E-1,1.2412817E0,-6.0377365E-1,1.1731844E0,-7.219252E-1,-7.2213256E-1,-2.3762381E-1,7.325762E-2,2.142857E-2,-3.0612249E-2,6.831683E-2,1.4153074E0,6.9230765E-1,8.219174E-2,-7.118645E-1,4.9090907E-1,1.4409449E0,-1.2772424E-9,-3.688525E-2,-7.26779E-1,-6.0000014E-3,7.8343946E-1,-6.8067235E-1,5.9999996E-1,7.233903E-2,-5.229358E-1,7.109827E-2,-3.0612249E-2,5.454546E-2,-3.6658358E-2,-1.2772424E-9,1.1284404E0,-3.2307696E-2,7.317074E-2,2.142857E-2,-3.7291285E-2,-5.665237E-1,9.574468E-1,-2.4000002E-2,-1.2772424E-9,-3.5217397E-2,5.454546E-2,-2.1428574E-2,-3.311689E-2,-7.317075E-3,-6.0000014E-3,6.774194E-2,4.8E-2,-3.5944704E-2,8.108106E-3,5.7079643E-2],"categories":[],"categories_nodes":[],"categories_segments":[],"categories_sizes":[],"default_left":[0,0,0,0,0,0,0,0,0,0,0,0,0,0,0,0,0,0,0,0,0,0,0,0,0,0,0,0,0,0,0,0,0,0,0,0,0,0,0,0,0,0,0,0,0,0,0,0,0,0,0,0,0,0,0,0,0,0,0],"id":0,"left_children":[1,3,5,7,9,11,13,15,17,19,21,23,25,27,29,-1,-1,-1,-1,31,33,35,37,39,41,-1,-1,43,-1,45,47,49,-1,51,-1,-1,-1,-1,-1,53,-1,-1,-1,-1,55,57,-1,-1,-1,-1,-1,-1,-1,-1,-1,-1,-1,-1,-1],"loss_changes":[4.1975464E2,5.342682E1,5.65148E1,5.044983E0,1.24016594E2,1.0944426E2,9.971748E0,3.562622E-1,1.3799825E1,1.0282745E1,3.9882774E0,1.0192909E1,7.100868E-1,4.9006653E-1,2.5916842E1,0E0,0E0,0E0,0E0,1.4042969E0,2.7640518E1,6.349658E0,6.958866E-1,1.4019221E1,3.3581543E-1,0E0,0E0,2.0185089E-1,0E0,4.294696E0,6.3923836E-1,2.992208E0,0E0,5.388813E-1,0E0,0E0,0E0,0E0,0E0,3.585723E0,0E0,0E0,0E0,0E0,6.711816E0,2.1092367E0,0E0,0E0,0E0,0E0,0E0,0E0,0E0,0E0,0E0,0E0,0E0,0E0,0E0],"parents":[2147483647,0,0,1,1,2,2,3,3,4,4,5,5,6,6,7,7,8,8,9,9,10,10,11,11,12,12,13,13,14,14,19,19,20,20,21,21,22,22,23,23,24,24,27,27,29,29,30,30,31,31,33,33,39,39,44,44,45,45],"right_children":[2,4,6,8,10,12,14,16,18,20,22,24,26,28,30,-1,-1,-1,-1,32,34,36,38,40,42,-1,-1,44,-1,46,48,50,-1,52,-1,-1,-1,-1,-1,54,-1,-1,-1,-1,56,58,-1,-1,-1,-1,-1,-1,-1,-1,-1,-1,-1,-1,-1],"split_conditions":[3E0,1.27E2,7E0,2E0,-4E0,-1.79E2,3.32E2,5.9776E4,1.12E2,-7E0,-3E0,1.98E2,1.97E2,1E1,1.4E1,7.325762E-2,2.142857E-2,-3.0612249E-2,6.831683E-2,-1.35E1,-2.45E2,-1.99E2,-1.43E2,5E0,1E0,-1.2772424E-9,-3.688525E-2,2.8E2,-6.0000014E-3,-1.01E2,5.134E3,-1.9E1,7.233903E-2,-2.84E2,7.109827E-2,-3.0612249E-2,5.454546E-2,-3.6658358E-2,-1.2772424E-9,4.05E1,-3.2307696E-2,7.317074E-2,2.142857E-2,-3.7291285E-2,8E0,-1.14E2,-2.4000002E-2,-1.2772424E-9,-3.5217397E-2,5.454546E-2,-2.1428574E-2,-3.311689E-2,-7.317075E-3,-6.0000014E-3,6.774194E-2,4.8E-2,-3.5944704E-2,8.108106E-3,5.7079643E-2],"split_indices":[75,86,75,75,75,86,85,79,85,75,75,85,109,87,75,0,0,0,0,87,85,85,85,75,19,0,0,85,0,88,82,75,0,85,0,0,0,0,0,90,0,0,0,0,75,88,0,0,0,0,0,0,0,0,0,0,0,0,0],"split_type":[0,0,0,0,0,0,0,0,0,0,0,0,0,0,0,0,0,0,0,0,0,0,0,0,0,0,0,0,0,0,0,0,0,0,0,0,0,0,0,0,0,0,0,0,0,0,0,0,0,0,0,0,0,0,0,0,0,0,0],"sum_hessian":[7.795555E2,3.9911108E2,3.8044443E2,2.3022221E2,1.6888889E2,1.1999999E2,2.6044443E2,2.1555554E2,1.4666666E1,1.16888885E2,5.1999996E1,5.8666664E1,6.133333E1,2.0533333E2,5.5111107E1,2.1422221E2,1.3333333E0,4.444444E0,1.0222221E1,8.755555E1,2.9333332E1,7.1111107E0,4.4888885E1,1.7333332E1,4.1333332E1,1.3333333E0,5.9999996E1,2.0355554E2,1.7777777E0,1.6444443E1,3.8666664E1,3.9999998E0,8.355555E1,1.1111111E1,1.8222221E1,4.444444E0,2.6666665E0,4.3555553E1,1.3333333E0,1.1111111E1,6.222222E0,3.9999996E1,1.3333333E0,1.7866666E2,2.4888887E1,1.4666666E1,1.7777777E0,1.3333333E0,3.7333332E1,2.6666665E0,1.3333333E0,7.5555553E0,3.5555553E0,1.7777777E0,9.333333E0,1.7777777E0,2.311111E1,3.111111E0,1.1555555E1],"tree_param":{"num_deleted":"0","num_feature":"128","num_nodes":"59","size_leaf_vector":"1"}},{"base_weights":[-6.89034E-1,-6.90209E-1,-1.2772424E-9,-1.2772424E-9,-6.9138795E-1,-6.925382E-1,-6.0000014E-3,-6.9635814E-1,-5.138122E-1,-2.727273E-1,-6.9749016E-1,-6.4429533E-1,7.31707E-2,-1.2772424E-9,-2.1428574E-2,-3.493151E-2,-1.36363655E-2,-1.2772424E-9,-3.50365E-2,4.285714E-2,-2.5862072E-2],"categories":[],"categories_nodes":[],"categories_segments":[],"categories_sizes":[],"default_left":[0,0,0,0,0,0,0,0,0,0,0,0,0,0,0,0,0,0,0,0,0],"id":1,"left_children":[1,3,-1,-1,5,7,-1,9,11,13,15,17,19,-1,-1,-1,-1,-1,-1,-1,-1],"loss_changes":[6.3409424E-1,6.362915E-1,0E0,0E0,4.2993164E-1,1.7388916E-1,0E0,1.7410278E-1,1.587481E0,1.5584415E-1,1.7602539E-1,6.019697E-1,2.5519645E0,0E0,0E0,0E0,0E0,0E0,0E0,0E0,0E0],"parents":[2147483647,0,0,1,1,4,4,5,5,7,7,8,8,9,9,10,10,11,11,12,12],"right_children":[2,4,-1,-1,6,8,-1,10,12,14,16,18,20,-1,-1,-1,-1,-1,-1,-1,-1],"split_conditions":[9.3E1,-1.25E2,-1.2772424E-9,-1.2772424E-9,1E0,1.07E2,-6.0000014E-3,1.3E1,2.0221106E9,1.5E1,1E0,4E0,1.2E1,-1.2772424E-9,-2.1428574E-2,-3.493151E-2,-1.36363655E-2,-1.2772424E-9,-3.50365E-2,4.285714E-2,-2.5862072E-2],"split_indices":[76,88,0,0,5,89,0,76,78,74,127,95,74,0,0,0,0,0,0,0,0],"split_type":[0,0,0,0,0,0,0,0,0,0,0,0,0,0,0,0,0,0,0,0,0],"sum_hessian":[7.8222217E2,7.8088885E2,1.3333333E0,1.3333333E0,7.795555E2,7.777777E2,1.7777777E0,7.586666E2,1.911111E1,2.6666665E0,7.5599994E2,1.5555554E1,3.5555553E0,1.3333333E0,1.3333333E0,7.533333E2,2.6666665E0,1.3333333E0,1.4222221E1,1.3333333E0,2.222222E0],"tree_param":{"num_deleted":"0","num_feature":"128","num_nodes":"21","size_leaf_vector":"1"}},{"base_weights":[3.078913E-1,-2.9036868E-1,1.2180369E0,-6.295829E-1,1.4828894E-1,7.42756E-2,8.6770743E-1,-1.6326535E-1,-7.3261213E-1,1.0206186E0,-6.325487E-1,-8.1632696E-2,1.3910828E0,-6.421726E-1,9.416058E-1,-5.294118E-1,-3.731219E-2,7.33813E-2,5.9999996E-1,2.970293E-2,-7.0169497E-1,4.3776822E-1,-6.359448E-1,1.4661654E0,9.069767E-1,-1.13207586E-1,-3.6245357E-2,4.5205477E-1,6.575342E-2,-3.5106387E-2,4.285714E-2,-3.50365E-2,1.1127596E0,-3.26087E-2,5.8536585E-2,-3.7078656E-2,-2.9032263E-1,-3.333334E-2,9.689441E-1,-2.0000003E-1,-3.5635363E-2,7.396631E-2,2.142857E-2,-3.658537E-1,6.8041235E-2,-2.837838E-2,3E-2,5.2040815E-2,-2.727273E-2,2.7372262E-2,7.177033E-2,4.8E-2,-3.311689E-2,1.6438356E-2,6.8041235E-2,2.142857E-2,-2.727273E-2,-2.5862072E-2,-1.2772424E-9],"categories":[],"categories_nodes":[],"categories_segments":[],"categories_sizes":[],"default_left":[0,0,0,0,0,0,0,0,0,0,0,0,0,0,0,0,0,0,0,0,0,0,0,0,0,0,0,0,0,0,0,0,0,0,0,0,0,0,0,0,0,0,0,0,0,0,0,0,0,0,0,0,0,0,0,0,0,0,0],"id":2,"left_children":[1,3,5,7,9,-1,11,13,15,17,19,21,23,25,27,29,-1,-1,31,33,35,37,39,41,43,45,-1,47,-1,-1,-1,-1,49,-1,-1,-1,51,-1,53,55,-1,-1,-1,57,-1,-1,-1,-1,-1,-1,-1,-1,-1,-1,-1,-1,-1,-1,-1],"loss_changes":[4.21255E2,6.961549E1,2.7457458E1,1.254808E1,1.3997815E2,0E0,6.7300255E1,2.653208E1,2.0232391E-1,1.7357315E1,4.991848E0,1.4385994E1,1.8405457E0,1.4399376E0,2.1885805E0,4.6729846E0,0E0,0E0,3.5239433E1,9.494871E0,1.3978386E0,1.5833658E1,6.6431713E-1,3.7501526E-1,8.777823E0,2.2488527E0,0E0,5.331334E0,0E0,0E0,0E0,0E0,6.043949E0,0E0,0E0,0E0,5.442279E0,0E0,4.0404453E0,1.3194805E0,0E0,0E0,0E0,2.5231284E-1,0E0,0E0,0E0,0E0,0E0,0E0,0E0,0E0,0E0,0E0,0E0,0E0,0E0,0E0,0E0],"parents":[2147483647,0,0,1,1,2,2,3,3,4,4,6,6,7,7,8,8,9,9,10,10,11,11,12,12,13,13,14,14,15,15,18,18,19,19,20,20,21,21,22,22,23,23,24,24,25,25,27,27,32,32,36,36,38,38,39,39,43,43],"right_children":[2,4,6,8,10,-1,12,14,16,18,20,22,24,26,28,30,-1,-1,32,34,36,38,40,42,44,46,-1,48,-1,-1,-1,-1,50,-1,-1,-1,52,-1,54,56,-1,-1,-1,58,-1,-1,-1,-1,-1,-1,-1,-1,-1,-1,-1,-1,-1,-1,-1],"split_conditions":[5E0,-3E0,6E0,-6E0,2.5E0,7.42756E-2,1.1E1,-9E0,-5E0,-3E0,3E0,8.5E0,1.35E1,-1.35E1,-6E0,-5E0,-3.731219E-2,7.33813E-2,-2E0,3E0,4E0,7E0,6E0,1.04E2,1.7E1,-1.6E1,-3.6245357E-2,-7E0,6.575342E-2,-3.5106387E-2,4.285714E-2,-3.50365E-2,2E0,-3.26087E-2,5.8536585E-2,-3.7078656E-2,3.5E0,-3.333334E-2,8E0,1E1,-3.5635363E-2,7.396631E-2,2.142857E-2,1.5E1,6.8041235E-2,-2.837838E-2,3E-2,5.2040815E-2,-2.727273E-2,2.7372262E-2,7.177033E-2,4.8E-2,-3.311689E-2,1.6438356E-2,6.8041235E-2,2.142857E-2,-2.727273E-2,-2.5862072E-2,-1.2772424E-9],"split_indices":[75,75,87,87,87,0,75,75,87,87,87,87,87,87,75,75,0,0,75,75,75,75,95,88,75,75,0,87,0,0,0,0,75,0,0,0,87,0,75,87,0,0,0,75,0,0,0,0,0,0,0,0,0,0,0,0,0,0,0],"split_type":[0,0,0,0,0,0,0,0,0,0,0,0,0,0,0,0,0,0,0,0,0,0,0,0,0,0,0,0,0,0,0,0,0,0,0,0,0,0,0,0,0,0,0,0,0,0,0,0,0,0,0,0,0,0,0,0,0,0,0],"sum_hessian":[7.7199994E2,4.662222E2,3.0577777E2,2.6266666E2,2.0355554E2,1.7155554E2,1.3422221E2,4.7999996E1,2.1466666E2,9.599999E1,1.0755555E2,4.7999996E1,8.622221E1,3.3777775E1,1.4222221E1,1.5999999E1,1.9866666E2,4.5333332E1,5.0666664E1,1.0222221E1,9.733333E1,2.4888887E1,2.311111E1,7.2888885E1,1.3333332E1,4.8888884E0,2.8888887E1,7.1111107E0,7.1111107E0,1.4666666E1,1.3333333E0,1.4222221E1,3.6444443E1,6.666666E0,3.5555553E0,8.799999E1,9.333333E0,7.9999995E0,1.6888887E1,3.9999998E0,1.911111E1,7.155555E1,1.3333333E0,3.5555553E0,9.777777E0,3.111111E0,1.7777777E0,4.444444E0,2.6666665E0,1.4222221E1,2.2222221E1,1.7777777E0,7.5555553E0,7.1111107E0,9.777777E0,1.3333333E0,2.6666665E0,2.222222E0,1.3333333E0],"tree_param":{"num_deleted":"0","num_feature":"128","num_nodes":"59","size_leaf_vector":"1"}},{"base_weights":[3.4714648E-1,3.5995042E-1,-2.2304434E-2,4.1461173E-1,2.6007077E-1,1.5854518E-1,-3.5962972E-1,3.899416E-1,8.2257736E-1,2.9537198E-1,-2.5681198E-1,5.744698E-1,-1.0635549E-1,-5.217253E-1,1.177054E-2,4.73308E-1,3.0207115E-1,9.3093E-1,-2.3433866E-2,-2.8214017E-1,3.1841424E-1,-3.4013726E-2,6.0028887E-1,-9.988173E-3,4.7387768E-2,-2.8183177E-1,2.8528763E-2,-3.1300243E-2,2.0300215E-5,4.9939108E-1,-1.1845158E-1,1.1471302E-2,3.3773148E-1,1.0715463E0,6.497694E-2,2.8095388E-1,-3.132318E-2,3.35577E-1,-4.4172263E-1,1.9477226E-4,5.1274367E-2,-3.0046651E-2,5.760975E-2,-1.580121E-2,2.5605801E-2,4.1131496E-2,-1.7186968E-2,2.0523587E-2,-1.4986217E-2,1.2694848E-2,2.5159488E-2,1.3733228E-2,6.0793787E-2,-2.3548063E-2,2.8221061E-2,-2.0845406E-2,3.4344967E-2,1.7774086E-2,-1.7994937E-2,1.1335245E-4,-2.867346E-2,2.0478163E-2,-2.0873383E-2,2.8873846E-2,-1.5731012E-2],"categories":[],"categories_nodes":[],"categories_segments":[],"categories_sizes":[],"default_left":[0,0,0,0,0,0,0,0,0,0,0,0,0,0,0,0,0,0,0,0,0,0,0,0,0,0,0,0,0,0,0,0,0,0,1,0,0,0,1,0,0,0,0,0,0,0,0,0,0,0,0,0,0,0,0,0,0,0,0,0,0,0,0,0,0],"id":3,"left_children":[1,3,5,7,9,11,13,15,17,19,21,23,25,27,-1,29,31,33,-1,35,37,-1,39,-1,-1,41,-1,-1,-1,43,45,47,49,51,53,55,-1,57,59,61,-1,-1,63,-1,-1,-1,-1,-1,-1,-1,-1,-1,-1,-1,-1,-1,-1,-1,-1,-1,-1,-1,-1,-1,-1],"loss_changes":[3.7093124E0,4.021187E0,1.7133174E0,4.581772E0,5.0057945E0,2.0849097E0,1.0663002E0,3.2357635E0,4.196411E0,3.461563E0,6.871718E0,2.3000097E0,1.5939858E0,4.3575191E-1,0E0,3.685093E0,2.3517628E0,2.9902973E0,0E0,2.163698E0,3.3330956E0,0E0,1.6379235E0,0E0,0E0,1.144959E0,0E0,0E0,0E0,2.4984703E0,2.5567656E0,3.3365636E0,2.6802254E0,2.1450653E0,1.4904379E0,1.5839963E0,0E0,3.4406605E0,3.418523E-1,7.972075E-1,0E0,0E0,1.3194604E0,0E0,0E0,0E0,0E0,0E0,0E0,0E0,0E0,0E0,0E0,0E0,0E0,0E0,0E0,0E0,0E0,0E0,0E0,0E0,0E0,0E0,0E0],"parents":[2147483647,0,0,1,1,2,2,3,3,4,4,5,5,6,6,7,7,8,8,9,9,10,10,11,11,12,12,13,13,15,15,16,16,17,17,19,19,20,20,22,22,25,25,29,29,30,30,31,31,32,32,33,33,34,34,35,35,37,37,38,38,39,39,42,42],"right_children":[2,4,6,8,10,12,14,16,18,20,22,24,26,28,-1,30,32,34,-1,36,38,-1,40,-1,-1,42,-1,-1,-1,44,46,48,50,52,54,56,-1,58,60,62,-1,-1,64,-1,-1,-1,-1,-1,-1,-1,-1,-1,-1,-1,-1,-1,-1,-1,-1,-1,-1,-1,-1,-1,-1],"split_conditions":[2.0241216E9,1.03E2,5.2E1,1E0,1E0,9E0,7.2E1,1.976E4,1E0,2.03E2,4.75E1,3.9E1,7.7E-1,8.5E-1,1.177054E-2,1E0,1.9875E4,2.0231217E9,-2.3433866E-2,4.0103082E8,1E0,-3.4013726E-2,-1.66E2,-9.988173E-3,4.7387768E-2,1.12E2,2.8528763E-2,-3.1300243E-2,2.0300215E-5,1E1,-6.7E-1,2.26E2,1E0,2.0191107E9,6E0,-1.08E2,-3.132318E-2,1E0,5.505E3,2.0211219E9,5.1274367E-2,-3.0046651E-2,3.8E1,-1.580121E-2,2.5605801E-2,4.1131496E-2,-1.7186968E-2,2.0523587E-2,-1.4986217E-2,1.2694848E-2,2.5159488E-2,1.3733228E-2,6.0793787E-2,-2.3548063E-2,2.8221061E-2,-2.0845406E-2,3.4344967E-2,1.7774086E-2,-1.7994937E-2,1.1335245E-4,-2.867346E-2,2.0478163E-2,-2.0873383E-2,2.8873846E-2,-1.5731012E-2],"split_indices":[78,86,76,77,77,95,76,80,43,109,90,76,127,126,0,64,80,78,0,81,58,0,85,0,0,85,0,0,0,113,127,85,93,78,95,88,0,34,82,78,0,0,76,0,0,0,0,0,0,0,0,0,0,0,0,0,0,0,0,0,0,0,0,0,0],"split_type":[0,0,0,0,0,0,0,0,0,0,0,0,0,0,0,0,0,0,0,0,0,0,0,0,0,0,0,0,0,0,0,0,0,0,0,0,0,0,0,0,0,0,0,0,0,0,0,0,0,0,0,0,0,0,0,0,0,0,0,0,0,0,0,0,0],"sum_hessian":[7.814422E2,7.5529205E2,2.6150166E1,4.8610776E2,2.691843E2,1.7368444E1,8.78172E0,4.602328E2,2.5874989E1,2.5237646E2,1.6807838E1,6.303149E0,1.1065295E1,6.998471E0,1.7832496E0,2.3391823E2,2.2631456E2,2.4129284E1,1.7457035E0,9.251828E0,2.4312463E2,1.1387831E1,5.4200077E0,2.2016165E0,4.101533E0,9.250906E0,1.814389E0,5.6676016E0,1.3308693E0,2.2419255E2,9.725677E0,2.4880709E1,2.0143384E2,2.0554205E1,3.5750794E0,3.5804806E0,5.6713476E0,2.3830264E2,4.8219895E0,2.6626272E0,2.7573805E0,4.3712425E0,4.8796635E0,3.078639E0,2.211139E2,1.3664058E0,8.359271E0,1.076251E1,1.4118199E1,1.3537595E2,6.60579E1,3.5970356E0,1.6957169E1,1.7520444E0,1.823035E0,1.3068557E0,2.273625E0,2.3214738E2,6.1552553E0,1.328317E0,3.4936726E0,1.3544579E0,1.3081694E0,1.8059807E0,3.073683E0],"tree_param":{"num_deleted":"0","num_feature":"128","num_nodes":"65","size_leaf_vector":"1"}},{"base_weights":[-6.764338E-1,-6.776457E-1,3.3128838E-4,1.1508799E-5,-6.788514E-1,-6.8002784E-1,-5.8095544E-3,-5.828181E-3,-6.8120915E-1,-6.8236655E-1,-1.000158E-2,-3.6111258E-2,-3.301703E-2],"categories":[],"categories_nodes":[],"categories_segments":[],"categories_sizes":[],"default_left":[0,0,0,0,0,0,0,0,0,0,0,0,0],"id":4,"left_children":[1,3,-1,-1,5,7,-1,-1,9,11,-1,-1,-1],"loss_changes":[6.270752E-1,6.138611E-1,0E0,0E0,4.1705322E-1,4.1833496E-1,0E0,0E0,2.7893066E-1,1.7602539E-1,0E0,0E0,0E0],"parents":[2147483647,0,0,1,1,4,4,5,5,8,8,9,9],"right_children":[2,4,-1,-1,6,8,-1,-1,10,12,-1,-1,-1],"split_conditions":[5.95E1,9E0,3.3128838E-4,1.1508799E-5,1E0,-1.25E2,-5.8095544E-3,-5.828181E-3,1E0,-3E0,-1.000158E-2,-3.6111258E-2,-3.301703E-2],"split_indices":[90,76,0,0,5,88,0,0,127,75,0,0,0],"split_type":[0,0,0,0,0,0,0,0,0,0,0,0,0],"sum_hessian":[7.51143E2,7.498207E2,1.3223778E0,1.3327737E0,7.4848785E2,7.46718E2,1.769866E0,1.7707287E0,7.4494727E2,7.427426E2,2.2046785E0,2.5304214E2,4.8970047E2],"tree_param":{"num_deleted":"0","num_feature":"128","num_nodes":"13","size_leaf_vector":"1"}},{"base_weights":[3.064428E-1,-2.767095E-1,1.1611364E0,-6.241283E-1,9.7723E-2,8.531032E-1,6.867111E-2,-7.387613E-2,-7.09287E-1,9.409767E-1,-6.1942744E-1,-4.7137165E-1,1.1454906E0,-5.87294E-1,1.1832408E0,-3.614795E-2,-1.501693E-1,3.9364168E-1,1.2676245E0,-1.8752354E-1,-6.923839E-1,-3.510101E-2,2.4376422E-1,5.8894044E-1,1.333693E0,-1.4872594E-1,-3.4974303E-2,6.295069E-2,2.0111853E-2,-2.932322E-2,4.095381E-2,1.2507678E0,-6.005787E-1,1.2939162E0,1.114017E-2,-3.4264874E-2,8.9625293E-1,-3.6465537E-2,-3.300658E-1,-2.6709968E-2,4.3110378E-2,1.2644155E0,-3.1624445E-1,6.896405E-2,8.006537E-1,-2.8659506E-2,2.9344669E-2,6.43559E-2,2.013504E-2,4.9497723E-3,-3.4845244E-2,4.3538854E-2,6.806002E-2,-3.216124E-4,5.6705035E-2,4.69825E-2,-3.307653E-2,6.566204E-2,2.0227754E-2,2.6658494E-2,-2.8992957E-2,-2.4243237E-2,6.0037155E-2],"categories":[],"categories_nodes":[],"categories_segments":[],"categories_sizes":[],"default_left":[0,0,0,0,0,0,0,0,0,0,0,0,0,0,0,0,0,0,0,0,0,0,0,0,0,0,0,0,0,0,0,0,0,0,0,0,0,0,0,0,0,1,0,0,0,0,0,0,0,0,0,0,0,0,0,0,0,0,0,0,0,0,0],"id":5,"left_children":[1,3,5,7,9,11,-1,13,15,17,19,21,23,25,27,-1,29,31,33,35,37,-1,39,41,43,45,-1,-1,-1,-1,-1,47,49,51,-1,-1,53,-1,55,-1,-1,57,59,-1,61,-1,-1,-1,-1,-1,-1,-1,-1,-1,-1,-1,-1,-1,-1,-1,-1,-1,-1],"loss_changes":[3.9294086E2,6.107826E1,1.97323E1,1.135495E1,1.376269E2,5.207064E1,0E0,2.247325E1,1.5020447E0,1.8192757E1,3.7480621E0,4.2570534E0,1.0662369E1,1.1076727E0,9.225273E-2,0E0,3.140819E0,3.5285408E1,1.4979019E0,1.0948296E1,1.1629333E0,0E0,3.7242036E0,1.8381859E1,8.611603E-1,2.2993238E0,0E0,0E0,0E0,0E0,0E0,1.6257095E-1,1.3788385E0,6.145859E-1,0E0,0E0,1.3947759E0,0E0,5.474296E0,0E0,0E0,1.8419266E-1,3.3024588E0,0E0,5.085735E0,0E0,0E0,0E0,0E0,0E0,0E0,0E0,0E0,0E0,0E0,0E0,0E0,0E0,0E0,0E0,0E0,0E0,0E0],"parents":[2147483647,0,0,1,1,2,2,3,3,4,4,5,5,7,7,8,8,9,9,10,10,11,11,12,12,13,13,14,14,16,16,17,17,18,18,19,19,20,20,22,22,23,23,24,24,25,25,31,31,32,32,33,33,36,36,38,38,41,41,42,42,44,44],"right_children":[2,4,6,8,10,12,-1,14,16,18,20,22,24,26,28,-1,30,32,34,36,38,-1,40,42,44,46,-1,-1,-1,-1,-1,48,50,52,-1,-1,54,-1,56,-1,-1,58,60,-1,62,-1,-1,-1,-1,-1,-1,-1,-1,-1,-1,-1,-1,-1,-1,-1,-1,-1,-1],"split_conditions":[5E0,-4E0,-2.5E2,-3.2E2,1.12E2,8E0,6.867111E-2,-9E0,1E0,-2E0,1.31E2,-2.87E2,1.4E1,1E1,6.1E1,-3.614795E-2,2.36E2,-1.77E2,1E0,3E0,4E0,-3.510101E-2,7E0,3.28E2,6.25E2,1.02E2,-3.4974303E-2,6.295069E-2,2.0111853E-2,-2.932322E-2,4.095381E-2,1E0,-1.12E2,-1E0,1.114017E-2,-3.4264874E-2,-2E-1,-3.6465537E-2,1.63E2,-2.6709968E-2,4.3110378E-2,1.6E1,3.1E1,6.896405E-2,1.7E1,-2.8659506E-2,2.9344669E-2,6.43559E-2,2.013504E-2,4.9497723E-3,-3.4845244E-2,4.3538854E-2,6.806002E-2,-3.216124E-4,5.6705035E-2,4.69825E-2,-3.307653E-2,6.566204E-2,2.0227754E-2,2.6658494E-2,-2.8992957E-2,-2.4243237E-2,6.0037155E-2],"split_indices":[75,75,86,85,85,75,0,75,33,75,85,86,75,74,76,0,86,85,50,75,75,0,75,85,85,88,0,0,0,0,0,21,89,75,0,0,127,0,85,0,0,95,76,0,75,0,0,0,0,0,0,0,0,0,0,0,0,0,0,0,0,0,0],"split_type":[0,0,0,0,0,0,0,0,0,0,0,0,0,0,0,0,0,0,0,0,0,0,0,0,0,0,0,0,0,0,0,0,0,0,0,0,0,0,0,0,0,0,0,0,0,0,0,0,0,0,0,0,0,0,0,0,0,0,0,0,0,0,0],"sum_hessian":[7.8673376E2,4.680573E2,3.1867645E2,2.4244075E2,2.2561655E2,1.3206491E2,1.8661154E2,3.2742565E1,2.0969818E2,1.0354829E2,1.2206825E2,2.3771435E1,1.0829348E2,2.3626226E1,9.116339E0,2.0440686E2,5.2913322E0,3.9524933E1,6.402335E1,1.8155813E1,1.03912445E2,1.798816E1,5.7832756E0,2.8409746E1,7.9883736E1,5.2865005E0,1.8339727E1,7.752177E0,1.3641621E0,3.9211822E0,1.3701499E0,2.1087324E1,1.8437607E1,6.2219273E1,1.8040828E0,1.2693445E1,5.4623685E0,9.3382195E1,1.0530246E1,2.621637E0,3.1616385E0,1.6041935E1,1.2367811E1,7.212748E1,7.756255E0,3.4922323E0,1.794268E0,1.972419E1,1.3631358E0,2.228111E0,1.6209496E1,1.0448999E1,5.1770275E1,1.3420285E0,4.1203403E0,1.8000594E0,8.7301855E0,1.4681032E1,1.3609023E0,2.6870654E0,9.680746E0,1.7907014E0,5.9655538E0],"tree_param":{"num_deleted":"0","num_feature":"128","num_nodes":"63","size_leaf_vector":"1"}},{"base_weights":[3.5039324E-1,1.0121416E0,-3.6903575E-1,6.83887E-1,6.599181E-2,1.6636896E-1,-6.2308484E-1,1.130103E0,-4.1386205E-1,1.0870261E0,-6.380985E-1,-3.629534E-2,-3.3134434E-1,1.3078281E0,7.548432E-1,-6.5103793E-1,1.9695923E-1,4.435791E-1,1.2745681E0,-3.624047E-2,7.33456E-2,1.1343566E0,-5.4884595E-1,1.3270352E0,4.8371217E-1,1.2074808E0,-3.6445263E-1,-1.9560823E-1,-3.5821494E-2,9.8767304E-1,-5.669775E-1,1.1013496E0,-3.0927507E-2,1.8551616E-2,1.2953416E0,5.043313E-2,-2.9987464E-2,2.0070715E-2,6.0492124E-2,-6.9880784E-1,-1.4582497E-1,1.9252516E-2,6.684844E-2,3.937608E-2,-1.3642189E-3,2.5958374E-2,6.527834E-2,-2.9193548E-2,8.4969625E-3,-3.0120274E-2,4.0243812E-2,-9.968154E-4,5.863867E-2,-1.0592913E-4,-3.2981373E-2,1.8818276E-2,5.9025187E-2,6.585198E-2,1.8837973E-2,-3.600385E-2,-6.1326753E-3,3.4405857E-2,-3.3543065E-2],"categories":[],"categories_nodes":[],"categories_segments":[],"categories_sizes":[],"default_left":[0,0,0,0,0,0,0,0,0,0,0,0,0,0,0,0,0,0,0,0,0,0,0,0,0,0,0,0,0,0,0,0,0,0,0,0,0,0,0,0,0,0,0,0,0,0,0,0,0,0,0,0,0,0,0,0,0,0,0,0,0,0,0],"id":6,"left_children":[1,3,5,7,-1,9,11,13,15,17,19,-1,21,23,25,27,29,31,33,-1,35,37,39,41,43,45,47,49,-1,51,53,55,-1,-1,57,-1,-1,-1,-1,59,61,-1,-1,-1,-1,-1,-1,-1,-1,-1,-1,-1,-1,-1,-1,-1,-1,-1,-1,-1,-1,-1,-1],"loss_changes":[3.7874707E2,4.0937073E1,5.1997784E1,9.9660065E1,0E0,9.220997E1,7.5274887E0,8.632996E0,8.71283E0,6.432564E0,4.1600647E0,0E0,2.2722305E1,8.8591003E-1,2.5125652E1,1.1379395E0,1.1034994E1,1.0896342E1,3.5218048E-1,0E0,5.7298985E0,2.8003693E-2,3.5871773E0,3.6245728E-1,6.0705674E-1,1.6801949E0,1.834411E0,3.2376983E0,0E0,1.6806841E0,4.9343276E-1,9.4501495E-2,0E0,0E0,3.6026E-1,0E0,0E0,0E0,0E0,4.535942E-1,8.26271E0,0E0,0E0,0E0,0E0,0E0,0E0,0E0,0E0,0E0,0E0,0E0,0E0,0E0,0E0,0E0,0E0,0E0,0E0,0E0,0E0,0E0,0E0],"parents":[2147483647,0,0,1,1,2,2,3,3,5,5,6,6,7,7,8,8,9,9,10,10,12,12,13,13,14,14,15,15,16,16,17,17,18,18,20,20,21,21,22,22,23,23,24,24,25,25,26,26,27,27,29,29,30,30,31,31,34,34,39,39,40,40],"right_children":[2,4,6,8,-1,10,12,14,16,18,20,-1,22,24,26,28,30,32,34,-1,36,38,40,42,44,46,48,50,-1,52,54,56,-1,-1,58,-1,-1,-1,-1,60,62,-1,-1,-1,-1,-1,-1,-1,-1,-1,-1,-1,-1,-1,-1,-1,-1,-1,-1,-1,-1,-1,-1],"split_conditions":[3E0,-1.2E2,7E0,-4E0,6.599181E-2,-1.84E2,3.1E2,2.36E2,-1.52E2,1.98E2,3.5E0,-3.629534E-2,1E1,1E0,-1E1,-3E0,-2E0,5E0,5.08E3,-3.624047E-2,4E0,5.403E3,1.35E1,-9.5E-1,-1.1E1,-1.35E1,-3.2E2,-1.99E2,-3.5821494E-2,-1.49E2,-1.11E2,-1.11E2,-3.0927507E-2,1.8551616E-2,1E0,5.043313E-2,-2.9987464E-2,2.0070715E-2,6.0492124E-2,8.1E-1,1.7E1,1.9252516E-2,6.684844E-2,3.937608E-2,-1.3642189E-3,2.5958374E-2,6.527834E-2,-2.9193548E-2,8.4969625E-3,-3.0120274E-2,4.0243812E-2,-9.968154E-4,5.863867E-2,-1.0592913E-4,-3.2981373E-2,1.8818276E-2,5.9025187E-2,6.585198E-2,1.8837973E-2,-3.600385E-2,-6.1326753E-3,3.4405857E-2,-3.3543065E-2],"split_indices":[75,85,75,75,0,86,85,86,85,85,87,0,75,68,75,75,75,75,82,0,75,82,87,126,75,87,85,85,0,85,91,91,0,0,45,0,0,0,0,127,75,0,0,0,0,0,0,0,0,0,0,0,0,0,0,0,0,0,0,0,0,0,0],"split_type":[0,0,0,0,0,0,0,0,0,0,0,0,0,0,0,0,0,0,0,0,0,0,0,0,0,0,0,0,0,0,0,0,0,0,0,0,0,0,0,0,0,0,0,0,0,0,0,0,0,0,0,0,0,0,0,0,0,0,0,0,0,0,0],"sum_hessian":[7.937672E2,4.1324628E2,3.805209E2,2.0150232E2,2.1174397E2,1.2256407E2,2.5795682E2,1.4324588E2,5.825644E1,5.699081E1,6.5573265E1,1.8963358E2,6.832326E1,9.5521324E1,4.772456E1,4.1915302E1,1.6341137E1,1.3621469E1,4.3369343E1,5.8432693E1,7.140571E0,8.283947E0,6.0039307E1,9.2749435E1,2.7718937E0,3.3926193E1,1.3798368E1,5.7638197E0,3.615148E1,7.8859253E0,8.455211E0,8.389174E0,5.232294E0,1.3986036E0,4.197074E1,2.7795827E0,4.360988E0,1.363413E0,6.920534E0,4.322252E1,1.681679E1,1.3828075E0,9.136662E1,1.3989873E0,1.3729066E0,5.016453E0,2.890974E1,9.716314E0,4.082054E0,4.3805666E0,1.3832535E0,1.3623192E0,6.5236063E0,1.3355614E0,7.1196494E0,1.3922449E0,6.99693E0,4.0578457E1,1.3922837E0,4.1442833E1,1.7796879E0,6.377102E0,1.0439687E1],"tree_param":{"num_deleted":"0","num_feature":"128","num_nodes":"63","size_leaf_vector":"1"}},{"base_weights":[-6.652837E-1,-6.6647243E-1,5.149454E-4,-6.7222816E-1,-5.0611186E-1,-6.7336094E-1,-2.608774E-1,3.3981808E-2,-5.8688074E-1,-6.774603E-1,-5.117462E-1,5.9154804E-4,-2.1036522E-2,3.1118972E-2,-2.4632964E-2,-6.539591E-1,-5.1162113E-2,-6.817374E-1,-5.204994E-1,-5.885505E-1,6.625678E-3,-3.469487E-2,3.2362403E-4,2.2325037E-2,-2.2841623E-2,-3.431713E-2,-2.5943458E-2,-1.2898564E-2,-3.3662327E-2,-5.7570385E-3,-3.4045707E-2],"categories":[],"categories_nodes":[],"categories_segments":[],"categories_sizes":[],"default_left":[0,1,0,0,0,0,0,0,0,0,0,0,0,0,0,0,0,0,0,0,0,0,0,0,0,0,0,0,0,0,0],"id":7,"left_children":[1,3,-1,5,7,9,11,13,15,17,19,-1,-1,-1,-1,21,23,25,27,29,-1,-1,-1,-1,-1,-1,-1,-1,-1,-1,-1],"loss_changes":[6.1553955E-1,3.5806274E-1,0E0,1.6323853E-1,1.3400006E0,1.3342285E-1,1.6321279E-1,1.8194065E0,9.1446877E-1,1.1755371E-1,1.1673198E0,0E0,0E0,0E0,0E0,6.206083E-1,1.0156174E0,1.552124E-1,7.4437094E-1,7.8971434E-1,0E0,0E0,0E0,0E0,0E0,0E0,0E0,0E0,0E0,0E0,0E0],"parents":[2147483647,0,0,1,1,3,3,4,4,5,5,6,6,7,7,8,8,9,9,10,10,15,15,16,16,17,17,18,18,19,19],"right_children":[2,4,-1,6,8,10,12,14,16,18,20,-1,-1,-1,-1,22,24,26,28,30,-1,-1,-1,-1,-1,-1,-1,-1,-1,-1,-1],"split_conditions":[5.95E1,2.09E2,5.149454E-4,1E0,-7.3E-1,1E0,-1.07E2,1.6E-1,7.1E-1,1E0,7.5E1,5.9154804E-4,-2.1036522E-2,3.1118972E-2,-2.4632964E-2,1.12E2,-1.04E2,1E0,4.3E1,4E1,6.625678E-3,-3.469487E-2,3.2362403E-4,2.2325037E-2,-2.2841623E-2,-3.431713E-2,-2.5943458E-2,-1.2898564E-2,-3.3662327E-2,-5.7570385E-3,-3.4045707E-2],"split_indices":[90,109,0,127,127,12,89,126,127,38,94,0,0,0,0,89,89,45,90,90,0,0,0,0,0,0,0,0,0,0,0],"split_type":[0,0,0,0,0,0,0,0,0,0,0,0,0,0,0,0,0,0,0,0,0,0,0,0,0,0,0,0,0,0,0],"sum_hessian":[7.5687823E2,7.555622E2,1.3159958E0,7.2630145E2,2.9260773E1,7.2367163E2,2.6298082E0,3.8819318E0,2.5378841E1,7.026569E2,2.10147E1,1.3140445E0,1.3157638E0,1.7476043E0,2.1343277E0,2.2358568E1,3.0202744E0,6.807632E2,2.1893745E1,1.8853577E1,2.1611247E0,2.1035797E1,1.3227694E0,1.31115E0,1.7091244E0,6.58918E2,2.184518E1,9.042014E0,1.285173E1,3.4446473E0,1.5408929E1],"tree_param":{"num_deleted":"0","num_feature":"128","num_nodes":"31","size_leaf_vector":"1"}},{"base_weights":[2.953619E-1,-2.7217522E-1,1.1059451E0,-5.981334E-1,1.3000569E-1,6.583699E-2,8.187315E-1,-7.026918E-1,-1.151839E-1,9.7241986E-1,-5.78511E-1,-3.997041E-2,1.2231178E0,-3.6269914E-2,-4.5136502E-1,-6.17361E-1,9.208679E-1,5.391678E-1,1.2622576E0,-2.0965677E-2,-6.811136E-1,-4.168457E-1,6.279512E-1,1.3034258E0,7.4918705E-1,-3.447024E-2,4.8696022E-2,-1.1058378E-1,-3.518119E-2,1.1048203E0,1.4255382E-1,6.3767366E-2,-3.4063298E-1,5.699054E-1,1.2937624E0,-3.3549782E-2,9.51409E-1,-3.60304E-2,-3.404093E-1,-3.450078E-2,-5.1889516E-2,-3.052798E-2,1.1673951E0,6.574526E-2,2.6654983E-2,-2.8214455E-1,6.0973953E-2,-2.7874578E-2,2.8777067E-2,2.4951087E-2,6.115175E-2,-2.1315267E-2,2.8019061E-2,-3.390878E-2,1.7457142E-2,4.3495018E-2,-1.6001497E-3,6.553415E-2,1.9108549E-2,5.7562348E-2,-6.4483605E-4,4.5503646E-2,-3.2909345E-2,3.6514174E-2,-3.2450307E-2,1.9572696E-2,6.1509576E-2,-2.882464E-2,1.9844124E-2],"categories":[],"categories_nodes":[],"categories_segments":[],"categories_sizes":[],"default_left":[0,0,0,0,0,0,0,0,0,0,0,0,0,0,0,0,0,0,0,0,0,0,0,0,0,0,0,0,0,0,0,0,0,0,0,0,0,0,0,0,0,0,0,0,0,1,0,0,0,0,0,0,0,0,0,0,0,0,0,0,0,0,0,0,0,0,0,0,0],"id":8,"left_children":[1,3,5,7,9,-1,11,13,15,17,19,21,23,-1,25,27,29,31,33,35,37,39,41,43,45,-1,-1,47,-1,49,51,-1,53,55,57,-1,59,-1,61,-1,63,-1,65,-1,-1,67,-1,-1,-1,-1,-1,-1,-1,-1,-1,-1,-1,-1,-1,-1,-1,-1,-1,-1,-1,-1,-1,-1,-1],"loss_changes":[3.633624E2,6.1035957E1,1.8610931E1,1.2897377E1,1.252959E2,0E0,4.876626E1,8.771515E-1,2.4988846E1,1.13546295E1,6.5150833E0,1.1812086E1,2.6548615E0,0E0,7.503431E0,1.3303795E0,2.0938272E0,2.6447258E1,4.990158E-1,1.2503395E1,1.0513992E0,2.9485254E0,1.2037485E1,8.529663E-3,8.190144E0,0E0,0E0,2.121422E0,0E0,2.8989887E-1,1.226269E0,0E0,4.6804733E0,7.9602563E-1,3.231659E-1,0E0,1.5438776E0,0E0,5.330062E0,0E0,6.9639497E0,0E0,1.1050987E-1,0E0,0E0,1.4037238E0,0E0,0E0,0E0,0E0,0E0,0E0,0E0,0E0,0E0,0E0,0E0,0E0,0E0,0E0,0E0,0E0,0E0,0E0,0E0,0E0,0E0,0E0,0E0],"parents":[2147483647,0,0,1,1,2,2,3,3,4,4,6,6,7,7,8,8,9,9,10,10,11,11,12,12,14,14,15,15,16,16,17,17,18,18,19,19,20,20,21,21,22,22,23,23,24,24,27,27,29,29,30,30,32,32,33,33,34,34,36,36,38,38,40,40,42,42,45,45],"right_children":[2,4,6,8,10,-1,12,14,16,18,20,22,24,-1,26,28,30,32,34,36,38,40,42,44,46,-1,-1,48,-1,50,52,-1,54,56,58,-1,60,-1,62,-1,64,-1,66,-1,-1,68,-1,-1,-1,-1,-1,-1,-1,-1,-1,-1,-1,-1,-1,-1,-1,-1,-1,-1,-1,-1,-1,-1,-1],"split_conditions":[5E0,-3E0,6E0,2.36E2,1.12E2,6.583699E-2,1.1E1,2.03E2,-9E0,-1E0,1.31E2,-3.06E2,1.35E1,-3.6269914E-2,-5E0,-1.35E1,8.1E-1,-3E0,-1.21E2,3E0,4E0,8E0,7E0,8.9E-1,1.7E1,-3.447024E-2,4.8696022E-2,4.4E1,-3.518119E-2,-1.09E2,2.02E3,6.3767366E-2,-2E0,5.1E1,5.4E1,-3.3549782E-2,-1.01E2,-3.60304E-2,1.63E2,-3.450078E-2,1E1,-3.052798E-2,5.312E3,6.574526E-2,2.6654983E-2,5.843E3,6.0973953E-2,-2.7874578E-2,2.8777067E-2,2.4951087E-2,6.115175E-2,-2.1315267E-2,2.8019061E-2,-3.390878E-2,1.7457142E-2,4.3495018E-2,-1.6001497E-3,6.553415E-2,1.9108549E-2,5.7562348E-2,-6.4483605E-4,4.5503646E-2,-3.2909345E-2,3.6514174E-2,-3.2450307E-2,1.9572696E-2,6.1509576E-2,-2.882464E-2,1.9844124E-2],"split_indices":[75,75,87,86,85,0,75,86,75,75,85,86,87,0,75,87,126,87,86,75,75,75,75,126,75,0,0,76,0,88,73,0,75,76,90,0,89,0,85,0,87,0,82,0,0,82,0,0,0,0,0,0,0,0,0,0,0,0,0,0,0,0,0,0,0,0,0,0,0],"split_type":[0,0,0,0,0,0,0,0,0,0,0,0,0,0,0,0,0,0,0,0,0,0,0,0,0,0,0,0,0,0,0,0,0,0,0,0,0,0,0,0,0,0,0,0,0,0,0,0,0,0,0,0,0,0,0,0,0,0,0,0,0,0,0,0,0,0,0,0,0],"sum_hessian":[7.8820197E2,4.6399554E2,3.2420642E2,2.5601456E2,2.0798099E2,1.8491054E2,1.3929588E2,2.1007779E2,4.5936775E1,9.484246E1,1.1313853E2,4.488504E1,9.441084E1,1.9094069E2,1.913709E1,3.1212238E1,1.4724535E1,3.916239E1,5.568007E1,1.7771582E1,9.536694E1,2.8934586E1,1.5950457E1,7.9234276E1,1.5176567E1,1.6840782E1,2.2963095E0,4.8720145E0,2.6340225E1,1.15704E1,3.1541355E0,2.1076715E1,1.8085676E1,3.2542422E0,5.2425827E1,1.0837009E1,6.9345717E0,8.446117E1,1.0905785E1,1.6038832E1,1.2895754E1,4.7994814E0,1.1150975E1,7.7374306E1,1.8599753E0,4.87843E0,1.0298137E1,3.0638518E0,1.8081625E0,2.7417004E0,8.828699E0,1.3270742E0,1.8270613E0,1.2154617E1,5.9310584E0,1.8746619E0,1.3795803E0,5.1040634E1,1.3851912E0,5.5835943E0,1.3509773E0,1.8321698E0,9.073614E0,5.4862313E0,7.4095225E0,1.3764622E0,9.774512E0,3.5085337E0,1.3698962E0],"tree_param":{"num_deleted":"0","num_feature":"128","num_nodes":"69","size_leaf_vector":"1"}},{"base_weights":[3.2597175E-1,9.4217527E-1,-3.5137635E-1,1.1938868E0,5.758958E-1,1.578768E-1,-5.9028935E-1,1.2300444E0,6.71458E-1,1.0408301E0,-5.953173E-1,1.0376841E0,-6.266167E-1,-6.9471234E-1,-1.9600151E-1,9.7870004E-1,6.280136E-2,-3.0539742E-2,5.8800817E-2,1.2044021E0,6.3381803E-1,3.6007095E-2,-6.86888E-1,3.995016E-1,1.2005823E0,-3.5634775E-2,1.0744687E-1,-3.5633724E-2,-4.468268E-1,7.833645E-1,-6.5377325E-1,6.0725298E-2,-2.8549585E-2,4.2181066E-1,6.2152196E-2,-3.5829553E-1,6.087891E-2,-2.9031355E-2,4.6100643E-2,-3.541599E-2,-4.4750932E-4,1.0145823E0,-2.9930338E-2,1.7650068E-2,1.2196673E0,6.3447595E-1,-2.7215919E-2,4.3559115E-2,-3.3729E-2,9.034106E-1,-2.1288339E-2,-6.7711216E-1,7.6756805E-7,4.8966553E-2,-2.4440398E-2,1.9090395E-2,-2.620346E-2,1.7435327E-2,5.4872967E-2,6.197385E-2,1.7994499E-2,-1.4723326E-3,4.5706242E-2,5.2130587E-2,-7.6774247E-3,-3.5072666E-2,-1.6957162E-2],"categories":[],"categories_nodes":[],"categories_segments":[],"categories_sizes":[],"default_left":[0,0,0,0,0,0,0,0,0,0,0,0,0,0,0,0,0,0,0,0,0,0,0,0,0,0,0,0,0,0,0,0,0,0,0,0,0,0,0,0,0,0,0,0,0,0,0,0,0,0,0,0,0,0,0,0,0,0,0,0,0,0,0,0,0,0,0],"id":9,"left_children":[1,3,5,7,9,11,13,15,17,19,21,23,25,27,29,31,-1,-1,-1,33,35,37,39,41,43,-1,45,-1,47,49,51,-1,-1,53,-1,55,-1,-1,-1,-1,-1,57,-1,-1,59,61,-1,-1,-1,63,-1,65,-1,-1,-1,-1,-1,-1,-1,-1,-1,-1,-1,-1,-1,-1,-1],"loss_changes":[3.3394907E2,3.7925934E1,4.650807E1,3.845459E0,9.4562195E1,8.527666E1,1.0563789E1,2.7331543E-1,1.2499533E1,7.4826202E0,2.8955956E0,5.567745E0,4.211544E0,5.9465027E-1,2.5532387E1,1.0225998E1,0E0,0E0,0E0,2.113884E0,2.2222921E1,4.49123E0,6.245098E-1,8.789421E0,3.1102753E-1,0E0,3.0031104E0,0E0,5.551634E0,3.0309706E0,5.886402E-1,0E0,0E0,3.3312006E0,0E0,2.0045726E0,0E0,0E0,0E0,0E0,0E0,9.285164E-2,0E0,0E0,3.1060028E-1,9.0692854E-1,0E0,0E0,0E0,2.6473541E0,0E0,6.85215E-2,0E0,0E0,0E0,0E0,0E0,0E0,0E0,0E0,0E0,0E0,0E0,0E0,0E0,0E0,0E0],"parents":[2147483647,0,0,1,1,2,2,3,3,4,4,5,5,6,6,7,7,8,8,9,9,10,10,11,11,12,12,13,13,14,14,15,15,19,19,20,20,21,21,22,22,23,23,24,24,26,26,28,28,29,29,30,30,33,33,35,35,41,41,44,44,45,45,49,49,51,51],"right_children":[2,4,6,8,10,12,14,16,18,20,22,24,26,28,30,32,-1,-1,-1,34,36,38,40,42,44,-1,46,-1,48,50,52,-1,-1,54,-1,56,-1,-1,-1,-1,-1,58,-1,-1,60,62,-1,-1,-1,64,-1,66,-1,-1,-1,-1,-1,-1,-1,-1,-1,-1,-1,-1,-1,-1,-1],"split_conditions":[3E0,1.27E2,7E0,2E0,-4E0,-1.84E2,3.32E2,-1.23E2,1.12E2,-9E0,-3E0,1.98E2,1.5E2,3.1E2,1.4E1,-2E0,6.280136E-2,-3.0539742E-2,5.8800817E-2,-1.35E1,-2.45E2,-1.99E2,-1.43E2,5E0,5.08E3,-3.5634775E-2,4E0,-3.5633724E-2,9E0,-1.01E2,2.05E1,6.0725298E-2,-2.8549585E-2,-1.9E1,6.2152196E-2,5.253E3,6.087891E-2,-2.9031355E-2,4.6100643E-2,-3.541599E-2,-4.4750932E-4,5E1,-2.9930338E-2,1.7650068E-2,1E0,8E1,-2.7215919E-2,4.3559115E-2,-3.3729E-2,1E0,-2.1288339E-2,7.5E2,7.6756805E-7,4.8966553E-2,-2.4440398E-2,1.9090395E-2,-2.620346E-2,1.7435327E-2,5.4872967E-2,6.197385E-2,1.7994499E-2,-1.4723326E-3,4.5706242E-2,5.2130587E-2,-7.6774247E-3,-3.5072666E-2,-1.6957162E-2],"split_indices":[75,86,75,75,75,86,85,85,85,75,75,85,85,85,75,75,0,0,0,87,85,85,85,75,82,0,75,0,75,88,87,0,0,75,0,82,0,0,0,0,0,94,0,0,45,94,0,0,0,40,0,85,0,0,0,0,0,0,0,0,0,0,0,0,0,0,0],"split_type":[0,0,0,0,0,0,0,0,0,0,0,0,0,0,0,0,0,0,0,0,0,0,0,0,0,0,0,0,0,0,0,0,0,0,0,0,0,0,0,0,0,0,0,0,0,0,0,0,0,0,0,0,0,0,0,0,0,0,0,0,0,0,0,0,0,0,0],"sum_hessian":[7.983066E2,4.1781607E2,3.8049054E2,2.4629785E2,1.715182E2,1.21610916E2,2.588796E2,2.2908804E2,1.7209814E1,1.2285858E2,4.8659622E1,5.717103E1,6.443989E1,2.0407149E2,5.4808136E1,2.5086042E1,2.04002E2,4.800238E0,1.2409576E1,8.624064E1,3.6617943E1,6.240681E0,4.241894E1,1.2327671E1,4.4843357E1,5.77026E1,6.7372904E0,1.8853494E2,1.5536546E1,1.723149E1,3.757665E1,2.1960724E1,3.1253185E0,4.618595E0,8.162205E1,1.3707671E1,2.291027E1,3.8829384E0,2.357743E0,4.1075596E1,1.3433462E0,7.617134E0,4.710537E0,1.4168357E0,4.342652E1,3.7397714E0,2.9975193E0,1.8729064E0,1.3663639E1,1.5905216E1,1.3262734E0,3.6247032E1,1.3296165E0,2.817898E0,1.8006968E0,2.269995E0,1.1437676E1,1.4195193E0,6.197615E0,4.2016808E1,1.4097135E0,1.3735315E0,2.3662398E0,1.4066268E1,1.8389481E0,3.2808594E1,3.438439E0],"tree_param":{"num_deleted":"0","num_feature":"128","num_nodes":"67","size_leaf_vector":"1"}},{"base_weights":[-6.5427774E-1,-6.554705E-1,-4.8320377E-3,-4.91419E-1,-6.615132E-1,-5.484311E-1,1.3870885E-2,-6.62727E-1,-9.314194E-3,1.3293177E-2,-6.1231136E-1,-5.61329E-1,-6.70589E-1,-6.467977E-1,1.8217297E-3,-5.885073E-1,-1.1012357E-1,-3.3774476E-2,-4.962859E-1,-3.4207664E-2,9.492061E-4,-3.0229459E-2,1.6724797E-3,-2.4129324E-2,2.1623604E-2,-3.0596865E-2,-3.7029888E-3],"categories":[],"categories_nodes":[],"categories_segments":[],"categories_sizes":[],"default_left":[0,0,0,0,0,0,0,0,0,0,0,0,0,0,0,0,0,0,0,0,0,0,0,0,0,0,0],"id":10,"left_children":[1,3,-1,5,7,9,-1,11,-1,-1,13,15,17,19,-1,21,23,-1,25,-1,-1,-1,-1,-1,-1,-1,-1],"loss_changes":[4.2089844E-1,3.9492798E-1,0E0,1.4536462E0,2.789917E-1,1.6181526E0,0E0,1.7800903E-1,0E0,0E0,6.107645E-1,6.2413406E-1,2.116394E-1,6.3412E-1,0E0,5.4792786E-1,1.1023704E0,0E0,9.9372387E-1,0E0,0E0,0E0,0E0,0E0,0E0,0E0,0E0],"parents":[2147483647,0,0,1,1,3,3,4,4,5,5,7,7,10,10,11,11,12,12,13,13,15,15,16,16,18,18],"right_children":[2,4,-1,6,8,10,-1,12,-1,-1,14,16,18,20,-1,22,24,-1,26,-1,-1,-1,-1,-1,-1,-1,-1],"split_conditions":[1E0,-1.18E2,-4.8320377E-3,1E0,1E0,-8.6E-1,1.3870885E-2,-1.16E2,-9.314194E-3,1.3293177E-2,9.2E-1,1E0,1E0,1E0,1.8217297E-3,1E0,4.5E-1,-3.3774476E-2,2.0221226E9,-3.4207664E-2,9.492061E-4,-3.0229459E-2,1.6724797E-3,-2.4129324E-2,2.1623604E-2,-3.0596865E-2,-3.7029888E-3],"split_indices":[5,89,0,4,127,127,0,88,0,0,126,60,38,23,0,62,127,0,78,0,0,0,0,0,0,0,0],"split_type":[0,0,0,0,0,0,0,0,0,0,0,0,0,0,0,0,0,0,0,0,0,0,0,0,0,0,0],"sum_hessian":[7.270467E2,7.253198E2,1.7268648E0,2.8692274E1,6.9662756E2,2.69784E1,1.7138761E0,6.944593E2,2.1682687E0,1.7324599E0,2.524594E1,5.518052E1,6.3927875E2,2.3974493E1,1.2714449E0,5.1758553E1,3.421967E0,6.190004E2,2.027835E1,2.2674673E1,1.2998207E0,5.0481186E1,1.2773652E0,2.0946786E0,1.3272884E0,1.5565512E1,4.71284E0],"tree_param":{"num_deleted":"0","num_feature":"128","num_nodes":"27","size_leaf_vector":"1"}},{"base_weights":[2.8668478E-1,-2.6353952E-1,1.038437E0,-5.79762E-1,1.3361423E-1,6.1921157E-2,7.6539E-1,-6.8997127E-1,-9.338492E-2,9.4548786E-1,-5.8871084E-1,-4.8414418E-1,1.0427128E0,-3.5629097E-2,-4.2701116E-1,-6.0924006E-1,9.424789E-1,4.2916375E-1,1.1633903E0,-9.01746E-2,-6.784707E-1,-3.436524E-2,1.0802335E-1,5.989549E-1,1.1893338E0,-3.3745047E-2,4.6807252E-2,-1.085242E-1,-3.4605876E-2,5.9090395E-2,2.601382E-1,5.938471E-2,-3.3494767E-2,5.065065E-1,1.1991374E0,-3.2920156E-2,8.491846E-1,-6.8861526E-1,7.212263E-4,-2.8377607E-2,3.9255306E-2,1.1233613E0,-3.487634E-1,6.1833747E-2,7.38832E-1,-2.7653938E-2,2.8409457E-2,-2.5416901E-2,4.5538925E-2,-2.1989737E-2,4.7723044E-2,6.0617235E-2,1.8097376E-2,-1.3670065E-3,5.3136617E-2,-3.4943093E-2,1.5512946E-4,5.9920963E-2,1.1134602E-2,1.765575E-2,-3.2323945E-2,-2.5678745E-2,5.590372E-2],"categories":[],"categories_nodes":[],"categories_segments":[],"categories_sizes":[],"default_left":[0,0,0,0,0,0,0,0,0,0,0,0,0,0,0,0,0,0,0,0,0,0,0,0,0,0,0,0,0,0,0,0,0,0,1,0,0,0,0,0,0,0,0,0,0,0,0,0,0,0,0,0,0,0,0,0,0,0,0,0,0,0,0],"id":11,"left_children":[1,3,5,7,9,-1,11,13,15,17,19,21,23,-1,25,27,29,31,33,35,37,-1,39,41,43,-1,-1,45,-1,-1,47,-1,-1,49,51,-1,53,55,-1,-1,-1,57,59,-1,61,-1,-1,-1,-1,-1,-1,-1,-1,-1,-1,-1,-1,-1,-1,-1,-1,-1,-1],"loss_changes":[3.284315E2,5.7707214E1,1.7371246E1,1.3639496E1,1.2031953E2,0E0,5.056041E1,9.3403625E-1,2.6428696E1,1.0361626E1,4.8024025E0,3.3127909E0,6.999771E0,0E0,7.047243E0,1.2904568E0,2.383422E0,2.6000639E1,9.7296906E-1,1.0026225E1,6.5626526E-1,0E0,3.9862723E0,1.6022993E1,9.64798E-1,0E0,0E0,2.076892E0,0E0,0E0,3.243476E0,0E0,0E0,2.6260426E0,2.5884247E-1,0E0,1.3621058E0,6.4463806E-1,0E0,0E0,0E0,1.1179409E0,2.7289002E0,0E0,5.7322254E0,0E0,0E0,0E0,0E0,0E0,0E0,0E0,0E0,0E0,0E0,0E0,0E0,0E0,0E0,0E0,0E0,0E0,0E0],"parents":[2147483647,0,0,1,1,2,2,3,3,4,4,6,6,7,7,8,8,9,9,10,10,11,11,12,12,14,14,15,15,16,16,17,17,18,18,19,19,20,20,22,22,23,23,24,24,27,27,30,30,33,33,34,34,36,36,37,37,41,41,42,42,44,44],"right_children":[2,4,6,8,10,-1,12,14,16,18,20,22,24,-1,26,28,30,32,34,36,38,-1,40,42,44,-1,-1,46,-1,-1,48,-1,-1,50,52,-1,54,56,-1,-1,-1,58,60,-1,62,-1,-1,-1,-1,-1,-1,-1,-1,-1,-1,-1,-1,-1,-1,-1,-1,-1,-1],"split_conditions":[5E0,-3E0,6E0,2.36E2,1.12E2,6.1921157E-2,8E0,2.03E2,-9E0,-2E0,1.31E2,-2.87E2,1.4E1,-3.5629097E-2,-5E0,-1.35E1,-3.2E2,-3E0,-1.18E2,3E0,1E0,-3.436524E-2,7E0,1E1,6.25E2,-3.3745047E-2,4.6807252E-2,1E2,-3.4605876E-2,5.9090395E-2,-6E0,5.938471E-2,-3.3494767E-2,2E0,8.5E1,-3.2920156E-2,-1.17E2,1E0,7.212263E-4,-2.8377607E-2,3.9255306E-2,3.28E2,3.1E1,6.1833747E-2,1.7E1,-2.7653938E-2,2.8409457E-2,-2.5416901E-2,4.5538925E-2,-2.1989737E-2,4.7723044E-2,6.0617235E-2,1.8097376E-2,-1.3670065E-3,5.3136617E-2,-3.4943093E-2,1.5512946E-4,5.9920963E-2,1.1134602E-2,1.765575E-2,-3.2323945E-2,-2.5678745E-2,5.590372E-2],"split_indices":[75,75,87,86,85,0,75,86,75,75,85,86,75,0,75,87,85,87,86,75,26,0,75,87,85,0,0,88,0,0,75,0,0,75,94,0,88,64,0,0,0,85,76,0,75,0,0,0,0,0,0,0,0,0,0,0,0,0,0,0,0,0,0],"split_type":[0,0,0,0,0,0,0,0,0,0,0,0,0,0,0,0,0,0,0,0,0,0,0,0,0,0,0,0,0,0,0,0,0,0,0,0,0,0,0,0,0,0,0,0,0,0,0,0,0,0,0,0,0,0,0,0,0,0,0,0,0,0,0],"sum_hessian":[7.923563E2,4.5787604E2,3.3448032E2,2.5465466E2,2.0322136E2,1.9102986E2,1.4345044E2,2.0727022E2,4.7384438E1,9.553438E1,1.0768699E2,2.591943E1,1.1753101E2,1.8928471E2,1.798551E1,3.190684E1,1.5477598E1,2.9233803E1,6.6300575E1,1.6736307E1,9.095068E1,1.9178885E1,6.7405443E0,3.0451773E1,8.707924E1,1.5645311E1,2.3401985E0,4.859134E0,2.7047705E1,1.0916631E1,4.5609674E0,1.724872E1,1.1985084E1,4.2047114E0,6.2095863E1,1.0614547E1,6.1217604E0,8.9644394E1,1.306288E0,3.455002E0,3.2855425E0,1.9484802E1,1.096697E1,7.721948E1,9.859752E0,3.0428727E0,1.8162615E0,2.1913993E0,2.3695679E0,1.356766E0,2.8479455E0,6.0690327E1,1.4055362E0,1.3700888E0,4.7516713E0,8.832567E1,1.3187222E0,1.7680775E1,1.8040278E0,3.210941E0,7.756029E0,2.2093618E0,7.65039E0],"tree_param":{"num_deleted":"0","num_feature":"128","num_nodes":"63","size_leaf_vector":"1"}},{"base_weights":[3.2013458E-1,9.035743E-1,-3.4194753E-1,1.0911107E0,4.912437E-1,1.5936592E-1,-5.7762945E-1,1.1681099E0,6.7820376E-1,-5.864732E-1,1.0901186E0,9.482591E-1,-6.867569E-1,-6.9479066E-1,-2.6556772E-1,5.938297E-2,9.2457E-1,1.0970227E0,-4.0602288E-1,-3.4821104E-2,-6.445637E-2,4.4699958E-1,5.8067836E-2,3.6692062E-1,1.1553015E0,-1.7488291E-3,-3.509501E-2,-3.5253588E-2,-4.7891256E-1,1.0722281E0,-5.288263E-1,5.7207216E-2,-2.6867924E-2,5.7189215E-2,1.5889945E-2,1.4911167E-1,-3.256088E-2,4.507939E-2,-3.1172728E-2,5.2866705E-2,-2.8683225E-2,9.539113E-1,-3.083098E-2,5.8688562E-2,1.7121887E-2,-3.196339E-2,2.1131657E-2,5.653221E-2,1.8292865E-2,4.703332E-2,-6.3950586E-1,-2.6428977E-2,4.3070327E-2,-2.501227E-3,5.4838914E-2,-2.585589E-2,4.9068674E-2,-3.474301E-2,-8.343872E-3],"categories":[],"categories_nodes":[],"categories_segments":[],"categories_sizes":[],"default_left":[0,0,0,0,0,0,0,0,0,0,0,0,0,0,0,0,0,0,0,0,0,0,0,0,0,0,0,0,1,0,0,0,0,0,0,0,0,0,0,0,0,0,0,0,0,0,0,0,0,0,0,0,0,0,0,0,0,0,0],"id":12,"left_children":[1,3,5,7,9,11,13,15,17,19,21,23,25,27,29,-1,31,33,35,-1,37,39,-1,41,43,-1,-1,-1,45,47,49,-1,-1,-1,-1,51,-1,-1,-1,-1,-1,53,-1,-1,-1,-1,-1,-1,-1,55,57,-1,-1,-1,-1,-1,-1,-1,-1],"loss_changes":[3.073627E2,3.2158905E1,4.4171097E1,8.4219055E0,8.712735E1,8.0810425E1,9.101624E0,5.8258057E-2,2.2212107E1,2.739685E0,3.4432526E0,7.1066475E0,5.53072E-1,7.080841E-2,2.5553658E1,0E0,7.8571854E0,9.0628433E-1,2.0145168E0,0E0,5.715339E0,6.9920907E0,0E0,1.0920264E1,2.837143E-1,0E0,0E0,0E0,1.9303808E0,8.134365E-2,3.851122E0,0E0,0E0,0E0,0E0,2.9313462E0,0E0,0E0,0E0,0E0,0E0,1.7186642E0,0E0,0E0,0E0,0E0,0E0,0E0,0E0,6.0929723E0,1.2014256E0,0E0,0E0,0E0,0E0,0E0,0E0,0E0,0E0],"parents":[2147483647,0,0,1,1,2,2,3,3,4,4,5,5,6,6,7,7,8,8,9,9,10,10,11,11,12,12,13,13,14,14,16,16,17,17,18,18,20,20,21,21,23,23,24,24,28,28,29,29,30,30,35,35,41,41,49,49,50,50],"right_children":[2,4,6,8,10,12,14,16,18,20,22,24,26,28,30,-1,32,34,36,-1,38,40,-1,42,44,-1,-1,-1,46,48,50,-1,-1,-1,-1,52,-1,-1,-1,-1,-1,54,-1,-1,-1,-1,-1,-1,-1,56,58,-1,-1,-1,-1,-1,-1,-1,-1],"split_conditions":[3E0,-3E0,7E0,2.36E2,-1.5E0,-1.79E2,3.1E2,2.03E2,-1E1,-2.5E0,1.03E2,1.98E2,1.98E2,6.9E1,1E1,5.938297E-2,-6E0,1E0,-7E0,-3.4821104E-2,-2E0,0E0,5.8067836E-2,5E0,1E0,-1.7488291E-3,-3.509501E-2,-3.5253588E-2,6.9E1,5.4E1,1.4E1,5.7207216E-2,-2.6867924E-2,5.7189215E-2,1.5889945E-2,-3.9E2,-3.256088E-2,4.507939E-2,-3.1172728E-2,5.2866705E-2,-2.8683225E-2,5.2E1,-3.083098E-2,5.8688562E-2,1.7121887E-2,-3.196339E-2,2.1131657E-2,5.653221E-2,1.8292865E-2,4.91E2,1.55E1,-2.6428977E-2,4.3070327E-2,-2.501227E-3,5.4838914E-2,-2.585589E-2,4.9068674E-2,-3.474301E-2,-8.343872E-3],"split_indices":[75,75,75,86,87,86,85,86,75,87,85,85,109,76,75,0,75,4,75,0,75,75,0,75,45,0,0,0,94,76,75,0,0,0,0,85,0,0,0,0,0,94,0,0,0,0,0,0,0,85,87,0,0,0,0,0,0,0,0],"split_type":[0,0,0,0,0,0,0,0,0,0,0,0,0,0,0,0,0,0,0,0,0,0,0,0,0,0,0,0,0,0,0,0,0,0,0,0,0,0,0,0,0,0,0,0,0,0,0,0,0,0,0,0,0,0,0,0,0,0,0],"sum_hessian":[7.938891E2,4.2181378E2,3.720753E2,2.888106E2,1.3300319E2,1.19088585E2,2.5298671E2,2.4187631E2,4.693428E1,4.7515842E1,8.548734E1,6.156602E1,5.752256E1,1.8303949E2,6.994723E1,2.2031454E2,2.156177E1,3.384768E1,1.3086601E1,3.8973106E1,8.542738E0,9.250538E0,7.62368E1,1.689632E1,4.46697E1,1.3812643E0,5.6141296E1,1.7255554E2,1.0483943E1,1.0996027E1,5.89512E1,1.8935175E1,2.6265955E0,3.1490091E1,2.3575904E0,4.1293607E0,8.95724E0,2.906664E0,5.636074E0,5.7664194E0,3.484118E0,1.0600135E1,6.2961855E0,4.324314E1,1.4265591E0,9.147776E0,1.3361671E0,9.601365E0,1.3946619E0,9.596454E0,4.9354748E1,2.2482512E0,1.8811095E0,1.401506E0,9.198628E0,6.2620144E0,3.3344388E0,4.375943E1,5.5953183E0],"tree_param":{"num_deleted":"0","num_feature":"128","num_nodes":"59","size_leaf_vector":"1"}},{"base_weights":[-6.3559E-1,-6.368132E-1,1.0993805E-3,-6.418936E-1,-4.4211558E-1,-6.431725E-1,1.1951522E-3,-5.5856246E-1,2.022918E-1,-6.0412574E-1,-6.7072856E-1,-3.3090368E-2,1.41684925E-2,4.1976742E-2,-2.1956421E-2,-6.141873E-1,-3.0912948E-1,-6.750362E-1,-4.2986217E-1,-3.0857874E-2,9.5252844E-4,9.049241E-3,-3.0408917E-2,-3.397661E-2,-2.3242025E-2,2.355919E-2,-3.11211E-2],"categories":[],"categories_nodes":[],"categories_segments":[],"categories_sizes":[],"default_left":[0,0,0,0,0,1,0,0,0,0,0,0,0,0,0,0,0,0,0,0,0,0,0,0,0,0,0],"id":13,"left_children":[1,3,-1,5,7,9,-1,11,13,15,17,-1,-1,-1,-1,19,21,23,25,-1,-1,-1,-1,-1,-1,-1,-1],"loss_changes":[5.883789E-1,4.2129517E-1,0E0,6.05011E-1,1.714344E0,3.3847046E-1,0E0,1.7817435E0,2.0037029E0,6.888275E-1,1.2084961E-1,0E0,0E0,0E0,0E0,5.4828644E-1,1.8362786E0,5.029297E-2,1.9786024E0,0E0,0E0,0E0,0E0,0E0,0E0,0E0,0E0],"parents":[2147483647,0,0,1,1,3,3,4,4,5,5,7,7,8,8,9,9,10,10,15,15,16,16,17,17,18,18],"right_children":[2,4,-1,6,8,10,-1,12,14,16,18,-1,-1,-1,-1,20,22,24,26,-1,-1,-1,-1,-1,-1,-1,-1],"split_conditions":[5.8E1,1.07E2,1.0993805E-3,1E0,4.0143782E8,5.306E3,1.1951522E-3,1E0,1.2E1,1E0,6.25E2,-3.3090368E-2,1.41684925E-2,4.1976742E-2,-2.1956421E-2,1E0,1.2E1,1E0,-7.6E-1,-3.0857874E-2,9.5252844E-4,9.049241E-3,-3.0408917E-2,-3.397661E-2,-2.3242025E-2,2.355919E-2,-3.11211E-2],"split_indices":[90,89,0,5,81,82,0,40,74,2,85,0,0,0,0,127,95,61,127,0,0,0,0,0,0,0,0],"split_type":[0,0,0,0,0,0,0,0,0,0,0,0,0,0,0,0,0,0,0,0,0,0,0,0,0,0,0],"sum_hessian":[7.13112E2,7.1181946E2,1.2925098E0,6.914793E2,2.034018E1,6.9018756E2,1.2917174E0,1.7339993E1,3.000188E0,2.9504092E2,3.9514667E2,1.5636459E1,1.7035333E0,1.3500557E0,1.6501323E0,2.842634E2,1.0777511E1,3.8643326E2,8.713411E0,2.8296158E2,1.3018236E0,4.2336826E0,6.5438285E0,3.7615454E2,1.027869E1,1.2794633E0,7.433948E0],"tree_param":{"num_deleted":"0","num_feature":"128","num_nodes":"27","size_leaf_vector":"1"}},{"base_weights":[2.6559702E-1,-2.507578E-1,9.763848E-1,-5.964875E-1,1.01367846E-1,5.8501847E-2,7.120786E-1,-1.0889041E-1,-6.77184E-1,8.0148655E-1,-5.7972807E-1,-1.05084345E-1,1.0824418E0,-5.6436414E-1,1.015975E0,-4.6740806E-1,-3.500549E-2,2.685434E-1,1.0845962E0,-9.398145E-2,-6.700089E-1,3.1159163E-1,-5.9237087E-1,1.1450447E0,4.9765942E-1,1.0792963E-3,-3.3617385E-2,5.432802E-2,1.7142473E-2,-3.366755E-2,3.606584E-2,1.03044E0,-3.382981E-2,1.1494623E0,5.872654E-1,-3.259754E-2,8.323847E-1,-6.8907464E-1,-1.10904396E-1,-2.4912208E-1,5.4557867E-2,-1.3487783E-1,-3.3743676E-2,1.1543708E0,1.698031E-2,-2.8609801E-2,5.2427698E-2,-2.6147773E-2,3.89103E-2,-1.3322991E-3,5.4934926E-2,5.818043E-2,1.5927657E-2,-2.7693871E-2,5.2677687E-2,-1.8316047E-3,5.1417697E-2,-3.4952868E-2,-4.870524E-3,-2.3702279E-2,2.046912E-2,-3.1543676E-2,9.750165E-3,1.9877937E-2,-2.4704378E-2,1.799006E-2,5.8157343E-2],"categories":[],"categories_nodes":[],"categories_segments":[],"categories_sizes":[],"default_left":[0,0,0,0,0,0,0,0,0,0,0,0,0,0,0,0,0,0,0,0,0,0,0,0,0,0,0,0,0,0,0,0,0,0,0,0,0,0,0,0,0,0,0,0,0,0,0,0,0,0,0,0,0,0,0,0,0,0,0,0,0,0,0,0,0,0,0],"id":14,"left_children":[1,3,5,7,9,-1,11,13,15,17,19,21,23,25,27,29,-1,31,33,35,37,39,41,43,45,47,-1,-1,-1,-1,-1,49,-1,51,53,-1,55,57,59,61,-1,63,-1,65,-1,-1,-1,-1,-1,-1,-1,-1,-1,-1,-1,-1,-1,-1,-1,-1,-1,-1,-1,-1,-1,-1,-1],"loss_changes":[2.8945645E2,5.5723034E1,1.6148407E1,9.009682E0,1.0888624E2,0E0,4.3347076E1,1.7978899E1,6.244354E-1,1.6688866E1,5.016674E0,9.415509E0,3.032013E0,1.5164328E0,1.0964775E-1,5.994851E0,0E0,2.976899E1,1.6853561E0,1.0527563E1,9.6305084E-1,1.1270765E1,7.1295977E-1,2.6978302E-1,7.2498446E0,2.4345732E0,0E0,0E0,0E0,0E0,0E0,1.6707458E0,0E0,3.7784576E-1,6.1635184E0,0E0,1.349113E0,4.8773575E-1,1.0267987E0,2.7424746E0,0E0,1.0578848E0,0E0,1.8592072E-1,0E0,0E0,0E0,0E0,0E0,0E0,0E0,0E0,0E0,0E0,0E0,0E0,0E0,0E0,0E0,0E0,0E0,0E0,0E0,0E0,0E0,0E0,0E0],"parents":[2147483647,0,0,1,1,2,2,3,3,4,4,6,6,7,7,8,8,9,9,10,10,11,11,12,12,13,13,14,14,15,15,17,17,18,18,19,19,20,20,21,21,22,22,23,23,24,24,25,25,31,31,33,33,34,34,36,36,37,37,38,38,39,39,41,41,43,43],"right_children":[2,4,6,8,10,-1,12,14,16,18,20,22,24,26,28,30,-1,32,34,36,38,40,42,44,46,48,-1,-1,-1,-1,-1,50,-1,52,54,-1,56,58,60,62,-1,64,-1,66,-1,-1,-1,-1,-1,-1,-1,-1,-1,-1,-1,-1,-1,-1,-1,-1,-1,-1,-1,-1,-1,-1,-1],"split_conditions":[5E0,-4E0,6E0,-3.2E2,1.12E2,5.8501847E-2,1.1E1,-9E0,-2.45E2,-2E0,1.31E2,8.5E0,6.25E2,-1.35E1,-1.02E2,-6E0,-3.500549E-2,-3E0,-1.03E2,3E0,1E0,8E0,6E0,1.04E2,1.7E1,4.4E1,-3.3617385E-2,5.432802E-2,1.7142473E-2,-3.366755E-2,3.606584E-2,2.019E3,-3.382981E-2,8.6E-1,2E0,-3.259754E-2,-2.1E-1,1E0,2.023E3,7E0,5.4557867E-2,3.51E2,-3.3743676E-2,1.96E2,1.698031E-2,-2.8609801E-2,5.2427698E-2,-2.6147773E-2,3.89103E-2,-1.3322991E-3,5.4934926E-2,5.818043E-2,1.5927657E-2,-2.7693871E-2,5.2677687E-2,-1.8316047E-3,5.1417697E-2,-3.4952868E-2,-4.870524E-3,-2.3702279E-2,2.046912E-2,-3.1543676E-2,9.750165E-3,1.9877937E-2,-2.4704378E-2,1.799006E-2,5.8157343E-2],"split_indices":[75,75,87,85,85,0,75,75,85,75,85,87,85,87,91,75,0,87,85,75,34,75,95,88,75,76,0,0,0,0,0,73,0,126,75,0,127,26,73,75,0,85,0,109,0,0,0,0,0,0,0,0,0,0,0,0,0,0,0,0,0,0,0,0,0,0,0],"split_type":[0,0,0,0,0,0,0,0,0,0,0,0,0,0,0,0,0,0,0,0,0,0,0,0,0,0,0,0,0,0,0,0,0,0,0,0,0,0,0,0,0,0,0,0,0,0,0,0,0,0,0,0,0,0,0,0,0,0,0,0,0,0,0,0,0,0,0],"sum_hessian":[7.870023E2,4.5622382E2,3.307785E2,2.2985242E2,2.2637138E2,1.8892787E2,1.4185063E2,3.297215E1,1.9688028E2,1.1153968E2,1.148317E2,4.4463478E1,9.738716E1,2.382383E1,9.148318E0,2.1503838E1,1.7537643E2,3.9371964E1,7.216772E1,1.8317467E1,9.651424E1,2.4162672E1,2.0300806E1,8.7104294E1,1.0282864E1,3.9788795E0,1.984495E1,7.724147E0,1.4241714E0,1.8698015E1,2.8058217E0,2.1749216E1,1.7622746E1,6.2681034E1,9.486679E0,1.1616711E1,6.700756E0,9.310679E1,3.4074492E0,1.4449848E1,9.712824E0,3.5041947E0,1.6796612E1,8.5679E1,1.4252907E0,3.4820127E0,6.800851E0,2.571752E0,1.4071274E0,1.3561893E0,2.0393028E1,6.1238056E1,1.4429775E0,2.6974337E0,6.7892456E0,1.3826275E0,5.3181286E0,9.138344E1,1.7233524E0,2.0591288E0,1.3483204E0,7.544462E0,6.905386E0,1.368695E0,2.1355E0,1.3947895E0,8.428421E1],"tree_param":{"num_deleted":"0","num_feature":"128","num_nodes":"67","size_leaf_vector":"1"}},{"base_weights":[3.0136406E-1,7.3305655E-1,-5.1495653E-1,1.0221789E0,3.7232086E-1,-1.4918184E-1,-6.575598E-1,1.107492E0,5.8686626E-1,-4.8641235E-1,8.4038347E-1,1.0204314E0,-5.088827E-1,-4.2350665E-1,-3.4426752E-2,5.6318123E-2,8.319308E-1,1.0405742E0,-4.3702212E-1,-3.4450207E-2,-6.075133E-2,3.995211E-1,1.0539836E0,4.3829447E-1,5.4709356E-2,-6.477171E-1,-6.463748E-2,3.8688876E-2,-3.330246E-2,5.3692758E-2,-2.6439128E-2,1.0853574E0,1.5108957E-2,1.4079897E-1,-5.8868814E-1,9.833785E-1,-3.341357E-2,1.0349665E0,-3.4240607E-2,1.0995399E0,5.857019E-1,-1.0918555E-3,3.4811545E-2,1.3563335E-3,-6.673397E-1,7.989902E-1,-3.164512E-2,1.6907774E-2,5.5439472E-2,-2.2710405E-2,3.7143398E-2,-3.296281E-2,1.3057197E-3,5.242933E-2,1.637969E-2,5.5290997E-2,2.2750681E-2,1.6598886E-2,5.5395097E-2,-2.5970956E-2,5.137516E-2,-3.435762E-2,-1.760493E-2,5.014756E-2,-3.395703E-4],"categories":[],"categories_nodes":[],"categories_segments":[],"categories_sizes":[],"default_left":[0,0,0,0,0,0,0,0,0,0,0,0,0,0,0,0,0,0,0,0,0,0,0,0,0,0,0,0,0,0,0,0,0,0,1,1,0,0,0,0,0,0,0,0,0,1,0,0,0,0,0,0,0,0,0,0,0,0,0,0,0,0,0,0,0],"id":15,"left_children":[1,3,5,7,9,11,13,15,17,19,21,23,25,27,-1,-1,29,31,33,-1,35,37,39,41,-1,43,45,-1,-1,-1,-1,47,-1,49,51,53,-1,55,-1,57,59,-1,-1,-1,61,63,-1,-1,-1,-1,-1,-1,-1,-1,-1,-1,-1,-1,-1,-1,-1,-1,-1,-1,-1],"loss_changes":[2.8302017E2,5.437854E1,1.4403633E1,1.0152435E1,9.4929214E1,3.3873203E1,1.1564865E0,3.217163E-1,2.3585157E1,7.166765E0,1.3945938E1,3.3533478E-1,3.7389164E0,8.048918E0,0E0,0E0,6.9346027E0,8.2273483E-1,1.4844537E0,0E0,1.8451769E1,3.6128372E1,1.5354538E0,4.665053E-1,0E0,6.351013E-1,8.214082E0,0E0,0E0,0E0,0E0,1.9272232E-1,0E0,1.8176719E0,5.751972E-1,1.1503506E-1,0E0,8.450241E-1,0E0,2.2248077E-1,6.000825E0,0E0,0E0,0E0,4.1088104E-2,1.1039066E0,0E0,0E0,0E0,0E0,0E0,0E0,0E0,0E0,0E0,0E0,0E0,0E0,0E0,0E0,0E0,0E0,0E0,0E0,0E0],"parents":[2147483647,0,0,1,1,2,2,3,3,4,4,5,5,6,6,7,7,8,8,9,9,10,10,11,11,12,12,13,13,16,16,17,17,18,18,20,20,21,21,22,22,23,23,25,25,26,26,31,31,33,33,34,34,35,35,37,37,39,39,40,40,44,44,45,45],"right_children":[2,4,6,8,10,12,14,16,18,20,22,24,26,28,-1,-1,30,32,34,-1,36,38,40,42,-1,44,46,-1,-1,-1,-1,48,-1,50,52,54,-1,56,-1,58,60,-1,-1,-1,62,64,-1,-1,-1,-1,-1,-1,-1,-1,-1,-1,-1,-1,-1,-1,-1,-1,-1,-1,-1],"split_conditions":[6E0,-3E0,-3.52E2,2.36E2,1.01E2,1E1,-2.9E2,2.03E2,-1E1,-2.5E0,3.5E0,8E0,1.35E1,8E0,-3.4426752E-2,5.6318123E-2,-6E0,1E0,5.274E3,-3.4450207E-2,-1E0,3E0,5E0,1.2E1,5.4709356E-2,2.1E1,1.7E1,3.8688876E-2,-3.330246E-2,5.3692758E-2,-2.6439128E-2,-1.65E1,1.5108957E-2,9E0,1.9807E4,1.9739E4,-3.341357E-2,-1.02E2,-3.4240607E-2,1.46E2,1.98E2,-1.0918555E-3,3.4811545E-2,1.3563335E-3,1E0,5.704E3,-3.164512E-2,1.6907774E-2,5.5439472E-2,-2.2710405E-2,3.7143398E-2,-3.296281E-2,1.3057197E-3,5.242933E-2,1.637969E-2,5.5290997E-2,2.2750681E-2,1.6598886E-2,5.5395097E-2,-2.5970956E-2,5.137516E-2,-3.435762E-2,-1.760493E-2,5.014756E-2,-3.395703E-4],"split_indices":[75,75,86,86,85,75,86,86,75,87,87,87,87,75,0,0,75,4,82,0,75,75,75,74,0,76,75,0,0,0,0,87,0,74,80,80,0,91,0,85,85,0,0,0,10,82,0,0,0,0,0,0,0,0,0,0,0,0,0,0,0,0,0,0,0],"split_type":[0,0,0,0,0,0,0,0,0,0,0,0,0,0,0,0,0,0,0,0,0,0,0,0,0,0,0,0,0,0,0,0,0,0,0,0,0,0,0,0,0,0,0,0,0,0,0,0,0,0,0,0,0,0,0,0,0,0,0,0,0,0,0,0,0],"sum_hessian":[8.010521E2,5.2403186E2,2.7702026E2,2.8987183E2,2.3416003E2,7.827992E1,1.9874034E2,2.4108043E2,4.8791393E1,8.259237E1,1.5156767E2,1.7979712E1,6.0300213E1,2.4942642E1,1.737977E2,2.2273972E2,1.8340727E1,3.379831E1,1.4993086E1,5.5539757E1,2.7052608E1,5.04047E1,1.0116297E2,2.8025267E0,1.5177184E1,4.5593445E1,1.4706767E1,3.8326952E0,2.1109947E1,1.5751115E1,2.589612E0,3.1422655E1,2.3756528E0,3.132075E0,1.18610115E1,9.723091E0,1.7329517E1,3.1809246E1,1.8595453E1,9.0965454E1,1.01975155E1,1.3354905E0,1.4670362E0,1.2774638E0,4.4315983E1,5.675436E0,9.031331E0,1.4246485E0,2.9998007E1,1.6987944E0,1.4332807E0,1.05749E1,1.2861109E0,8.298908E0,1.4241832E0,2.753814E1,4.2711067E0,1.4189589E0,8.954649E1,2.8622375E0,7.335278E0,4.058545E1,3.7305324E0,4.33377E0,1.341666E0],"tree_param":{"num_deleted":"0","num_feature":"128","num_nodes":"65","size_leaf_vector":"1"}},{"base_weights":[-6.2358946E-1,-6.248287E-1,2.0032674E-3,1.6363673E-3,-6.260662E-1,-6.726559E-1,-5.998195E-1,-6.798786E-1,-4.68516E-1,-5.6419873E-1,-6.6979784E-1,-4.7223964E-1,-3.439626E-2,-3.078728E-2,-2.344604E-2,-3.6479694E-1,-5.8488077E-1,-3.4113184E-2,-3.6059913E-1,1.5256265E-2,-3.1393398E-2,2.2833949E-2,-2.1675115E-2,-2.192649E-2,2.212899E-2,-1.5728757E-2,-3.0020153E-2,2.2487042E-2,-2.94263E-2],"categories":[],"categories_nodes":[],"categories_segments":[],"categories_sizes":[],"default_left":[0,0,0,0,0,1,0,0,0,0,0,0,0,0,0,0,0,0,0,0,0,0,0,0,0,0,0,0,0],"id":16,"left_children":[1,3,-1,-1,5,7,9,11,13,15,17,19,-1,-1,21,23,25,-1,27,-1,-1,-1,-1,-1,-1,-1,-1,-1,-1],"loss_changes":[6.0650635E-1,5.947876E-1,0E0,0E0,4.5794678E-1,4.3624878E-2,7.6834106E-1,6.777954E-2,7.463367E-1,1.0694962E0,3.3126068E-1,1.6381295E0,0E0,0E0,9.7081965E-1,2.0924945E0,9.8669434E-1,0E0,1.7284716E0,0E0,0E0,0E0,0E0,0E0,0E0,0E0,0E0,0E0,0E0],"parents":[2147483647,0,0,1,1,4,4,5,5,6,6,7,7,8,8,9,9,10,10,11,11,14,14,15,15,16,16,18,18],"right_children":[2,4,-1,-1,6,8,10,12,14,16,18,20,-1,-1,22,24,26,-1,28,-1,-1,-1,-1,-1,-1,-1,-1,-1,-1],"split_conditions":[9.4E1,9E0,2.0032674E-3,1.6363673E-3,-3E0,1.88E3,1.2E1,-4.75E2,-7E0,4E1,6.25E2,4.15E1,-3.439626E-2,-3.078728E-2,-1.04E2,1E0,3E0,-3.4113184E-2,-7.4E-1,1.5256265E-2,-3.1393398E-2,2.2833949E-2,-2.1675115E-2,-2.192649E-2,2.212899E-2,-1.5728757E-2,-3.0020153E-2,2.2487042E-2,-2.94263E-2],"split_indices":[76,76,0,0,75,110,75,85,75,90,85,90,0,0,91,77,95,0,127,0,0,0,0,0,0,0,0,0,0],"split_type":[0,0,0,0,0,0,0,0,0,0,0,0,0,0,0,0,0,0,0,0,0,0,0,0,0,0,0,0,0],"sum_hessian":[7.0599146E2,7.04734E2,1.2574396E0,1.2760159E0,7.0345795E2,2.4461766E2,4.588403E2,2.3400768E2,1.0609988E1,3.1006943E2,1.4877087E2,1.0956946E1,2.2305074E2,7.6844754E0,2.925513E0,3.0889877E1,2.7917957E2,1.4184558E2,6.9252906E0,1.6674438E0,9.289502E0,1.2952442E0,1.6302688E0,2.8723572E1,2.1663046E0,1.6316113E1,2.6286346E2,1.3066446E0,5.618646E0],"tree_param":{"num_deleted":"0","num_feature":"128","num_nodes":"29","size_leaf_vector":"1"}},{"base_weights":[2.6905438E-1,-2.4890247E-1,9.410888E-1,-5.924773E-1,1.0618272E-1,1.111181E0,7.0091033E-1,-1.2728892E-1,-6.702461E-1,7.553177E-1,-5.616416E-1,1.4373004E-2,5.5795748E-2,-6.3384004E-2,1.0439677E0,-5.9141093E-1,9.669222E-1,-3.4223396E-2,-1.5966748E-1,3.0850452E-1,1.0225773E0,-9.4691776E-2,-6.4703315E-1,3.1783476E-1,-5.735396E-1,1.0865412E0,6.2501866E-1,-3.3309605E-2,-1.043529E-1,5.183492E-2,1.5944397E-2,-2.7798792E-2,3.5852306E-2,1.026972E0,-3.3427045E-2,5.5601753E-2,7.718847E-1,-3.1926583E-2,4.3468058E-2,-3.4392733E-2,-2.8829953E-1,-3.13525E-2,7.750042E-1,-6.5688156E-2,-3.313059E-2,1.7533232E-2,5.471897E-2,-2.6441628E-2,5.1131524E-2,2.0086471E-2,-2.323212E-2,5.4412723E-2,-1.316322E-3,-2.0141238E-2,5.1961478E-2,4.276157E-2,-3.0987803E-2,1.2021891E-2,5.2407444E-2,1.9719785E-2,-2.2417335E-2],"categories":[],"categories_nodes":[],"categories_segments":[],"categories_sizes":[],"default_left":[0,0,0,0,0,0,0,0,0,0,0,0,0,0,0,0,0,0,0,0,0,0,0,0,0,0,0,0,0,0,0,0,0,1,0,0,0,0,0,0,0,0,0,0,0,0,0,0,0,0,0,0,0,0,0,0,0,0,0,0,0],"id":17,"left_children":[1,3,5,7,9,11,13,15,17,19,21,-1,-1,23,25,27,29,-1,31,33,35,37,39,41,43,45,47,-1,49,-1,-1,-1,-1,51,-1,-1,53,-1,-1,-1,55,-1,57,59,-1,-1,-1,-1,-1,-1,-1,-1,-1,-1,-1,-1,-1,-1,-1,-1,-1],"loss_changes":[2.7036438E2,5.362686E1,1.3028961E1,7.9928894E0,9.4390884E1,4.441223E-1,3.7517044E1,1.7441292E1,1.2782059E0,1.2861252E1,4.2217407E0,0E0,0E0,8.971469E0,1.0802841E0,8.026161E-1,1.3391495E-1,0E0,2.6509502E0,3.0682673E1,6.8037415E-1,9.875785E0,1.1289864E0,1.1936916E1,8.469124E-1,1.2490845E-1,5.7955112E0,0E0,9.8398E-1,0E0,0E0,0E0,0E0,1.6435413E0,0E0,0E0,7.112364E0,0E0,0E0,0E0,4.6924415E0,0E0,2.4218054E0,8.893807E-1,0E0,0E0,0E0,0E0,0E0,0E0,0E0,0E0,0E0,0E0,0E0,0E0,0E0,0E0,0E0,0E0,0E0],"parents":[2147483647,0,0,1,1,2,2,3,3,4,4,5,5,6,6,7,7,8,8,9,9,10,10,13,13,14,14,15,15,16,16,18,18,19,19,20,20,21,21,22,22,23,23,24,24,25,25,26,26,28,28,33,33,36,36,40,40,42,42,43,43],"right_children":[2,4,6,8,10,12,14,16,18,20,22,-1,-1,24,26,28,30,-1,32,34,36,38,40,42,44,46,48,-1,50,-1,-1,-1,-1,52,-1,-1,54,-1,-1,-1,56,-1,58,60,-1,-1,-1,-1,-1,-1,-1,-1,-1,-1,-1,-1,-1,-1,-1,-1,-1],"split_conditions":[5E0,-4E0,6E0,-3.2E2,1.12E2,-2.48E2,1.1E1,-9E0,1E0,-2E0,1.31E2,1.4373004E-2,5.5795748E-2,8.5E0,6.25E2,1E0,5.6E1,-3.4223396E-2,2.36E2,-3E0,-2E0,3E0,4E0,7E0,6E0,1.96E2,1.7E1,-3.3309605E-2,-4.08E2,5.183492E-2,1.5944397E-2,-2.7798792E-2,3.5852306E-2,2.02E2,-3.3427045E-2,5.5601753E-2,0E0,-3.1926583E-2,4.3468058E-2,-3.4392733E-2,1.63E2,-3.13525E-2,8E0,3.58E2,-3.313059E-2,1.7533232E-2,5.471897E-2,-2.6441628E-2,5.1131524E-2,2.0086471E-2,-2.323212E-2,5.4412723E-2,-1.316322E-3,-2.0141238E-2,5.1961478E-2,4.276157E-2,-3.0987803E-2,1.2021891E-2,5.2407444E-2,1.9719785E-2,-2.2417335E-2],"split_indices":[75,75,87,85,85,86,75,75,33,75,85,0,0,87,85,19,76,0,86,87,87,75,75,75,95,109,75,0,85,0,0,0,0,109,0,0,75,0,0,0,85,0,75,85,0,0,0,0,0,0,0,0,0,0,0,0,0,0,0,0,0],"split_type":[0,0,0,0,0,0,0,0,0,0,0,0,0,0,0,0,0,0,0,0,0,0,0,0,0,0,0,0,0,0,0,0,0,0,0,0,0,0,0,0,0,0,0,0,0,0,0,0,0,0,0,0,0,0,0,0,0,0,0,0,0],"sum_hessian":[7.750469E2,4.3805475E2,3.3699216E2,2.2229604E2,2.1575871E2,1.9515715E2,1.4183499E2,3.221754E1,1.9007849E2,1.09343864E2,1.0641484E2,1.4678507E0,1.936893E2,4.419302E1,9.7641975E1,2.2944769E1,9.272773E0,1.8459613E2,5.4823623E0,4.1730984E1,6.7612885E1,1.6777685E1,8.963716E1,2.5508516E1,1.8684504E1,8.718843E1,1.0453542E1,1.9571968E1,3.3728004E0,7.829938E0,1.4428347E0,4.027581E0,1.4547812E0,2.4018183E1,1.7712801E1,4.7298805E1,2.0314077E1,1.0942487E1,5.8351974E0,7.965545E1,9.981712E0,8.196426E0,1.731209E1,3.0473413E0,1.5637162E1,1.4009504E0,8.578748E1,2.5944743E0,7.8590674E0,1.3547815E0,2.0180187E0,2.2666243E1,1.3519408E0,3.6721103E0,1.6641968E1,1.8879676E0,8.093745E0,6.4903E0,1.082179E1,1.3697591E0,1.6775824E0],"tree_param":{"num_deleted":"0","num_feature":"128","num_nodes":"61","size_leaf_vector":"1"}},{"base_weights":[2.9925504E-1,7.227936E-1,-4.687252E-1,9.7495735E-1,3.6831993E-1,-1.16881266E-1,-6.411081E-1,4.970987E-1,1.0424378E0,-4.5795897E-1,8.529352E-1,9.667993E-1,-5.4721814E-1,-4.1267207E-1,-3.412975E-2,9.3350786E-1,-5.6738305E-1,5.3603202E-2,8.190685E-1,-3.389404E-2,-4.969072E-2,4.5042157E-1,5.2284207E-2,5.3102195E-2,5.5011064E-1,-1.6268046E-1,-6.415215E-1,-3.3018332E-2,6.5663904E-1,3.4545326E-1,5.2060332E-2,-3.202897E-2,5.6044705E-4,1.0338321E0,-2.9086513E-2,4.878108E-2,-4.8768196E-1,1.0052489E0,-3.3981085E-2,-2.1724705E-2,4.6287183E-2,-5.721889E-1,4.54924E-2,-6.5790164E-1,5.129766E-4,4.7828476E-3,4.4094916E-2,4.3270614E-2,-2.5057385E-2,5.2980244E-2,1.5294418E-2,1.8952711E-3,-3.259116E-2,5.1429708E-2,1.559249E-2,-3.2452423E-2,1.1682617E-4,-3.374707E-2,-1.5486869E-2],"categories":[],"categories_nodes":[],"categories_segments":[],"categories_sizes":[],"default_left":[0,0,0,0,0,0,0,0,0,0,0,0,0,0,0,0,0,0,0,0,0,0,0,0,0,0,0,0,0,0,0,0,0,0,0,0,0,0,0,0,0,0,0,0,0,0,0,0,0,0,0,0,0,0,0,0,0,0,0],"id":18,"left_children":[1,3,5,7,9,11,13,15,17,19,21,23,25,27,-1,29,31,-1,33,-1,35,37,-1,-1,39,41,43,-1,45,47,-1,-1,-1,49,-1,-1,51,53,-1,-1,-1,55,-1,57,-1,-1,-1,-1,-1,-1,-1,-1,-1,-1,-1,-1,-1,-1,-1],"loss_changes":[2.554538E2,4.486255E1,1.6871304E1,8.994843E0,8.52429E1,4.3945713E1,1.4934006E0,1.8376083E1,8.265991E-1,7.058428E0,9.91877E0,4.8031425E-1,2.3352737E0,8.728333E0,0E0,1.389843E0,5.0659156E-1,0E0,1.0951084E1,0E0,1.3378639E1,2.8972095E1,0E0,0E0,3.015243E0,6.9282713E0,5.7992554E-1,0E0,7.232907E-1,2.9747932E0,0E0,0E0,0E0,2.422638E-1,0E0,0E0,1.8190203E0,1.7562485E-1,0E0,0E0,0E0,4.948399E-1,0E0,1.0173035E-1,0E0,0E0,0E0,0E0,0E0,0E0,0E0,0E0,0E0,0E0,0E0,0E0,0E0,0E0,0E0],"parents":[2147483647,0,0,1,1,2,2,3,3,4,4,5,5,6,6,7,7,8,8,9,9,10,10,11,11,12,12,13,13,15,15,16,16,18,18,20,20,21,21,24,24,25,25,26,26,28,28,29,29,33,33,36,36,37,37,41,41,43,43],"right_children":[2,4,6,8,10,12,14,16,18,20,22,24,26,28,-1,30,32,-1,34,-1,36,38,-1,-1,40,42,44,-1,46,48,-1,-1,-1,50,-1,-1,52,54,-1,-1,-1,56,-1,58,-1,-1,-1,-1,-1,-1,-1,-1,-1,-1,-1,-1,-1,-1,-1],"split_conditions":[5E0,-3E0,-3.2E2,-3.2E2,1.04E2,1E1,7E0,-1E1,2.03E2,-2.5E0,3.5E0,8E0,1.4E1,1.98E2,-3.412975E-2,-1.35E1,-1.01E2,5.3603202E-2,-6E0,-3.389404E-2,-2E0,3E0,5.2284207E-2,5.3102195E-2,3.13E2,4.91E2,2E1,-3.3018332E-2,-3.1E-1,-1.9E1,5.2060332E-2,-3.202897E-2,5.6044705E-4,9E-1,-2.9086513E-2,4.878108E-2,0E0,1E0,-3.3981085E-2,-2.1724705E-2,4.6287183E-2,8E-1,4.54924E-2,1.65E1,5.129766E-4,4.7828476E-3,4.4094916E-2,4.3270614E-2,-2.5057385E-2,5.2980244E-2,1.5294418E-2,1.8952711E-3,-3.259116E-2,5.1429708E-2,1.559249E-2,-3.2452423E-2,1.1682617E-4,-3.374707E-2,-1.5486869E-2],"split_indices":[75,75,86,85,85,75,75,75,86,87,87,75,75,85,0,87,91,0,75,0,75,75,0,0,85,85,87,0,126,75,0,0,0,127,0,0,75,34,0,0,0,127,0,87,0,0,0,0,0,0,0,0,0,0,0,0,0,0,0],"split_type":[0,0,0,0,0,0,0,0,0,0,0,0,0,0,0,0,0,0,0,0,0,0,0,0,0,0,0,0,0,0,0,0,0,0,0,0,0,0,0,0,0,0,0,0,0,0,0,0,0,0,0,0,0,0,0,0,0,0,0],"sum_hessian":[7.833194E2,5.049178E2,2.7840164E2,2.940135E2,2.1090431E2,9.209934E1,1.8630229E2,3.741663E1,2.5659686E2,7.7988075E1,1.3291624E2,2.5823534E1,6.627581E1,3.0317038E1,1.5598524E2,2.6624384E1,1.0792248E1,2.2319432E2,3.3402523E1,5.0256195E1,2.7731876E1,4.4119396E1,8.8796844E1,1.9758472E1,6.0650616E0,1.358909E1,5.2686718E1,2.4925701E1,5.3913364E0,4.7726183E0,2.1851765E1,9.485166E0,1.3070824E0,2.918933E1,4.2131934E0,7.933206E0,1.979867E1,2.966496E1,1.4454434E1,1.631609E0,4.4334526E0,1.0171828E1,3.4172618E0,5.1385925E1,1.3007921E0,1.9527909E0,3.4385457E0,2.9429312E0,1.8296871E0,2.7751186E1,1.4381429E0,4.894699E0,1.4903972E1,2.8231071E1,1.4338894E0,8.857206E0,1.3146217E0,4.809358E1,3.292346E0],"tree_param":{"num_deleted":"0","num_feature":"128","num_nodes":"59","size_leaf_vector":"1"}},{"base_weights":[-6.241787E-1,1.643713E-3,-6.254323E-1,-3.9923484E-3,-6.2664515E-1,-5.3930914E-1,-6.379157E-1,-5.693102E-1,3.0800733E-1,-7.3230662E-3,-6.393341E-1,-5.892575E-1,-5.7253458E-2,4.0655166E-2,-1.8866433E-2,-6.406749E-1,-2.2726957E-1,-3.2083075E-2,-1.8994031E-2,-2.2635028E-2,2.4356345E-2,-2.5966296E-2,-3.240433E-2,1.8458894E-3,-1.9645844E-2],"categories":[],"categories_nodes":[],"categories_segments":[],"categories_sizes":[],"default_left":[0,0,0,0,0,0,0,0,0,0,0,0,0,0,0,0,0,0,0,0,0,0,0,0,0],"id":19,"left_children":[1,-1,3,-1,5,7,9,11,13,-1,15,17,19,-1,-1,21,23,-1,-1,-1,-1,-1,-1,-1,-1],"loss_changes":[5.932007E-1,0E0,4.0911865E-1,0E0,3.373108E-1,2.3510094E0,3.2992554E-1,8.141575E-1,1.5445695E0,0E0,1.8901062E-1,6.3173103E-1,1.1289997E0,0E0,0E0,2.0581055E-1,1.6827993E-1,0E0,0E0,0E0,0E0,0E0,0E0,0E0,0E0],"parents":[2147483647,0,0,2,2,4,4,5,5,6,6,7,7,8,8,10,10,11,11,12,12,15,15,16,16],"right_children":[2,-1,4,-1,6,8,10,12,14,-1,16,18,20,-1,-1,22,24,-1,-1,-1,-1,-1,-1,-1,-1],"split_conditions":[9E0,1.643713E-3,-1.25E2,-3.9923484E-3,4.05E1,1E0,-3.7E0,1E0,-1.04E2,-7.3230662E-3,1E0,5.5E-1,1E1,4.0655166E-2,-1.8866433E-2,3E0,1.1E1,-3.2083075E-2,-1.8994031E-2,-2.2635028E-2,2.4356345E-2,-2.5966296E-2,-3.240433E-2,1.8458894E-3,-1.9645844E-2],"split_indices":[76,0,88,0,90,77,118,28,88,0,127,126,74,0,0,95,74,0,0,0,0,0,0,0,0],"split_type":[0,0,0,0,0,0,0,0,0,0,0,0,0,0,0,0,0,0,0,0,0,0,0,0,0],"sum_hessian":[6.941685E2,1.2738655E0,6.9289465E2,1.6851486E0,6.9120953E2,8.458719E1,6.066223E2,8.20115E1,2.5756896E0,2.0458052E0,6.0457654E2,7.879139E1,3.2201037E0,1.3755052E0,1.2001843E0,6.020626E2,2.5138838E0,6.1367382E1,1.742401E1,1.9627442E0,1.2573595E0,3.874638E1,5.633162E2,1.2682726E0,1.2456112E0],"tree_param":{"num_deleted":"0","num_feature":"128","num_nodes":"25","size_leaf_vector":"1"}},{"base_weights":[2.5651067E-1,2.4388663E-1,6.0689473E-1,2.315281E-1,5.884024E-1,1.6200462E-1,6.78506E-1,2.2021076E-1,5.9950554E-1,9.976662E-2,7.5378245E-1,4.2498663E-1,-1.8436164E-2,4.6385232E-1,4.725126E-2,2.3775372E-1,6.116742E-2,7.138298E-1,-7.200269E-2,3.33092E-2,-2.6040701E-2,-1.1643568E-3,8.145484E-1,-2.0143576E-4,3.237235E-2,6.9385755E-1,-6.2028855E-2,2.4721575E-1,-5.5602204E-2,9.963396E-2,-2.6501158E-2,-4.928618E-3,8.025945E-1,-2.092777E-2,1.6560007E-2,9.031449E-1,3.1677723E-1,-4.3229125E-3,4.3011416E-2,-2.279994E-2,1.5634667E-2,-1.2623257E-2,1.2654297E-2,-1.2057174E-2,3.452756E-2,-2.1597517E-3,1.6788071E-2,4.3564077E-2,-1.765295E-4,4.929341E-2,1.6343003E-2,3.545211E-2,-1.8431088E-2],"categories":[],"categories_nodes":[],"categories_segments":[],"categories_sizes":[],"default_left":[0,0,0,1,1,0,0,0,0,0,0,0,0,0,0,0,0,0,0,0,0,0,0,0,0,0,0,0,0,0,0,0,0,0,0,0,0,0,0,0,0,0,0,0,0,0,0,0,0,0,0,0,0],"id":20,"left_children":[1,3,5,7,9,11,13,15,17,19,21,23,-1,25,-1,27,29,31,33,-1,-1,-1,35,-1,-1,37,39,41,43,45,-1,-1,47,-1,-1,49,51,-1,-1,-1,-1,-1,-1,-1,-1,-1,-1,-1,-1,-1,-1,-1,-1],"loss_changes":[3.2724037E0,3.0487823E0,7.2542E-1,2.8822784E0,1.965786E0,8.474369E-1,8.357487E-1,1.9490814E0,1.6648002E0,2.9970093E0,9.027891E-1,3.627718E-1,0E0,1.7726674E0,0E0,1.7722435E0,1.6734264E0,1.3807678E0,6.9277626E-1,0E0,0E0,0E0,4.8071194E-1,0E0,0E0,1.3765612E0,9.2046636E-1,1.8646278E0,3.0200663E0,2.2995014E0,0E0,0E0,9.101391E-1,0E0,0E0,3.556652E-1,1.3818063E0,0E0,0E0,0E0,0E0,0E0,0E0,0E0,0E0,0E0,0E0,0E0,0E0,0E0,0E0,0E0,0E0],"parents":[2147483647,0,0,1,1,2,2,3,3,4,4,5,5,6,6,7,7,8,8,9,9,10,10,11,11,13,13,15,15,16,16,17,17,18,18,22,22,25,25,26,26,27,27,28,28,29,29,32,32,35,35,36,36],"right_children":[2,4,6,8,10,12,14,16,18,20,22,24,-1,26,-1,28,30,32,34,-1,-1,-1,36,-1,-1,38,40,42,44,46,-1,-1,48,-1,-1,50,52,-1,-1,-1,-1,-1,-1,-1,-1,-1,-1,-1,-1,-1,-1,-1,-1],"split_conditions":[2.0241216E9,1E0,-2.29E2,1.9841E4,3.3E1,1.6E-1,4.3E-1,1.03E2,7.5E-1,-1.07E2,-6.7E-1,4.0167184E8,-1.8436164E-2,-6E-2,4.725126E-2,1E0,1.02E2,3E1,9.4E-1,3.33092E-2,-2.6040701E-2,-1.1643568E-3,2.0231231E9,-2.0143576E-4,3.237235E-2,-6.6E-1,5.9E1,5.085E3,6.9E-1,-1.03E2,-2.6501158E-2,-4.928618E-3,5E1,-2.092777E-2,1.6560007E-2,1E0,1.1E1,-4.3229125E-3,4.3011416E-2,-2.279994E-2,1.5634667E-2,-1.2623257E-2,1.2654297E-2,-1.2057174E-2,3.452756E-2,-2.1597517E-3,1.6788071E-2,4.3564077E-2,-1.765295E-4,4.929341E-2,1.6343003E-2,3.545211E-2,-1.8431088E-2],"split_indices":[78,64,85,80,94,126,126,89,127,91,127,81,0,126,0,57,91,76,127,0,0,0,78,0,0,127,94,82,127,91,0,0,90,0,0,10,95,0,0,0,0,0,0,0,0,0,0,0,0,0,0,0,0],"split_type":[0,0,0,0,0,0,0,0,0,0,0,0,0,0,0,0,0,0,0,0,0,0,0,0,0,0,0,0,0,0,0,0,0,0,0,0,0,0,0,0,0,0,0,0,0,0,0,0,0,0,0,0,0],"sum_hessian":[7.7227826E2,7.470584E2,2.5219812E1,7.22802E2,2.425643E1,3.9489508E0,2.127086E1,7.027858E2,2.001614E1,6.5391006E0,1.7717329E1,2.7737584E0,1.1751924E0,1.3299718E1,7.9711432E0,6.325219E2,7.026397E1,1.70503E1,2.9658387E0,3.3803222E0,3.1587782E0,1.3297225E0,1.6387606E1,1.2824469E0,1.4913116E0,9.030582E0,4.269135E0,6.129101E2,1.9611803E1,6.675213E1,3.5118406E0,1.6685662E0,1.5381735E1,1.574489E0,1.3913496E0,1.3220209E1,3.167397E0,1.671448E0,7.3591347E0,1.9753851E0,2.2937498E0,6.628989E0,6.0628107E2,1.6248266E1,3.3635364E0,4.2102314E1,2.4649817E1,1.4099537E1,1.2821978E0,1.0939203E1,2.2810066E0,1.992539E0,1.174858E0],"tree_param":{"num_deleted":"0","num_feature":"128","num_nodes":"53","size_leaf_vector":"1"}},{"base_weights":[2.8242993E-1,6.762953E-1,-4.9903455E-1,9.3870807E-1,3.395967E-1,-6.3275427E-1,-1.185397E-1,1.0188566E0,5.241046E-1,-3.9474878E-1,8.045911E-1,-3.460949E-1,-6.615414E-1,5.0837208E-2,-5.024921E-1,5.1794864E-2,7.9459673E-1,9.3396896E-1,-3.7570605E-1,-3.3575837E-2,8.790862E-3,4.2157978E-1,9.8717964E-1,4.1305196E-2,-3.2351337E-2,-3.383423E-2,-4.7567514E-1,4.1997507E-2,-6.046931E-1,4.9915608E-2,-2.5974855E-2,4.0366024E-1,5.0825115E-2,1.3776919E-1,-5.628401E-1,8.5548496E-1,-5.457299E-1,5.0962646E-2,-5.3639823E-1,1.0000226E0,1.0046953E-2,3.6169693E-2,-3.191492E-2,-4.736089E-1,4.2731475E-2,-3.3272028E-2,-7.1167424E-2,4.421829E-2,-2.4848122E-2,-2.5365701E-2,3.935608E-2,-3.1771142E-2,1.3961978E-3,4.723139E-2,7.148078E-3,-6.7622605E-4,-3.0678859E-2,2.1592218E-2,-3.3686824E-2,5.0815016E-2,2.193082E-2,-2.963079E-2,-1.2027955E-3,3.859853E-2,-2.6663844E-2],"categories":[],"categories_nodes":[],"categories_segments":[],"categories_sizes":[],"default_left":[0,0,0,0,0,0,0,0,0,0,0,0,0,0,0,0,0,0,0,0,0,0,0,0,0,0,0,0,0,0,0,0,0,0,1,0,0,0,0,0,0,0,0,0,0,0,0,0,0,0,0,0,0,0,0,0,0,0,0,0,0,0,0,0,0],"id":21,"left_children":[1,3,5,7,9,11,13,15,17,19,21,23,25,-1,27,-1,29,31,33,-1,35,37,39,-1,-1,-1,41,43,45,-1,-1,47,-1,49,51,53,55,-1,57,59,-1,-1,-1,61,-1,-1,63,-1,-1,-1,-1,-1,-1,-1,-1,-1,-1,-1,-1,-1,-1,-1,-1,-1,-1],"loss_changes":[2.41034E2,4.5658463E1,1.3287796E1,9.165253E0,7.868179E1,1.3728333E0,3.0817787E1,1.0757446E-1,1.854881E1,1.0018324E1,9.433662E0,7.5229096E0,1.7150879E-1,0E0,2.9538746E0,0E0,6.27195E0,1.0860348E0,1.6298795E0,0E0,1.8053778E1,2.7579214E1,7.546158E-1,0E0,0E0,0E0,3.6933198E0,4.281269E0,1.39081E0,0E0,0E0,3.1509266E0,0E0,2.5433693E0,5.3387237E-1,8.312435E-1,8.310418E-1,0E0,2.7901664E0,4.0280914E-1,0E0,0E0,0E0,3.2299793E-1,0E0,0E0,2.6152596E0,0E0,0E0,0E0,0E0,0E0,0E0,0E0,0E0,0E0,0E0,0E0,0E0,0E0,0E0,0E0,0E0,0E0,0E0],"parents":[2147483647,0,0,1,1,2,2,3,3,4,4,5,5,6,6,7,7,8,8,9,9,10,10,11,11,12,12,14,14,16,16,17,17,18,18,20,20,21,21,22,22,26,26,27,27,28,28,31,31,33,33,34,34,35,35,36,36,38,38,39,39,43,43,46,46],"right_children":[2,4,6,8,10,12,14,16,18,20,22,24,26,-1,28,-1,30,32,34,-1,36,38,40,-1,-1,-1,42,44,46,-1,-1,48,-1,50,52,54,56,-1,58,60,-1,-1,-1,62,-1,-1,64,-1,-1,-1,-1,-1,-1,-1,-1,-1,-1,-1,-1,-1,-1,-1,-1,-1,-1],"split_conditions":[6E0,-3E0,8.5E0,2.36E2,1.12E2,7E0,1E1,2.03E2,-1E1,-2.5E0,1.54E2,-2.74E2,2.8E2,5.0837208E-2,1.4E1,5.1794864E-2,-6E0,-1.35E1,-7E0,-3.3575837E-2,-1E0,3E0,1E0,4.1305196E-2,-3.2351337E-2,-3.383423E-2,8E0,4.91E2,7.5E2,4.9915608E-2,-2.5974855E-2,-1.6E1,5.0825115E-2,-3.9E2,1.9807E4,1.6E1,0E0,5.0962646E-2,-1.79E2,1E0,1.0046953E-2,3.6169693E-2,-3.191492E-2,-1.04E2,4.2731475E-2,-3.3272028E-2,1.7E1,4.421829E-2,-2.4848122E-2,-2.5365701E-2,3.935608E-2,-3.1771142E-2,1.3961978E-3,4.723139E-2,7.148078E-3,-6.7622605E-4,-3.0678859E-2,2.1592218E-2,-3.3686824E-2,5.0815016E-2,2.193082E-2,-2.963079E-2,-1.2027955E-3,3.859853E-2,-2.6663844E-2],"split_indices":[75,75,87,86,85,75,75,86,75,87,85,86,85,0,75,0,75,87,75,0,75,75,64,0,0,0,75,85,85,0,0,75,0,85,80,74,75,0,86,35,0,0,0,91,0,0,75,0,0,0,0,0,0,0,0,0,0,0,0,0,0,0,0,0,0],"split_type":[0,0,0,0,0,0,0,0,0,0,0,0,0,0,0,0,0,0,0,0,0,0,0,0,0,0,0,0,0,0,0,0,0,0,0,0,0,0,0,0,0,0,0,0,0,0,0,0,0,0,0,0,0,0,0,0,0,0,0,0,0,0,0,0,0],"sum_hessian":[7.810108E2,5.1937537E2,2.6163544E2,2.908824E2,2.2849298E2,1.9310747E2,6.8527954E1,2.4253883E2,4.834354E1,8.864727E1,1.398457E2,1.8811089E1,1.7429639E2,1.6902359E1,5.1625595E1,2.2204723E2,2.0491606E1,3.318829E1,1.515525E1,5.2189205E1,3.6458065E1,4.6213566E1,9.363214E1,3.4862373E0,1.532485E1,1.5872389E2,1.5572497E1,8.25185E0,4.3373745E1,1.7949339E1,2.5422661E0,5.2629137E0,2.7925377E1,4.1184564E0,1.1036794E1,1.4213231E1,2.2244835E1,2.8419167E1,1.7794401E1,9.185973E1,1.7724068E0,1.4479625E0,1.4124536E1,5.3038225E0,2.948028E0,3.871804E1,4.655701E0,3.4431763E0,1.8197377E0,2.1757495E0,1.9427067E0,9.761835E0,1.274958E0,1.2343235E1,1.8699957E0,2.650807E0,1.9594028E1,1.9440863E0,1.5850314E1,8.848392E1,3.3758175E0,3.9420414E0,1.3617809E0,1.4109067E0,3.2447944E0],"tree_param":{"num_deleted":"0","num_feature":"128","num_nodes":"65","size_leaf_vector":"1"}},{"base_weights":[-6.041345E-1,-6.054077E-1,2.6651807E-3,1.6862303E-3,-6.066613E-1,-6.1280775E-1,-4.3723744E-1,-5.186034E-1,-6.2577796E-1,1.7064814E-1,-5.2681714E-1,-5.482311E-1,3.0387267E-1,-6.2718904E-1,-2.1739279E-1,-2.0521503E-2,3.2751765E-2,-5.9822387E-1,4.454261E-3,-2.8381852E-2,-2.7293721E-3,-1.860953E-2,3.971469E-2,-2.7670318E-2,-3.189517E-2,2.2453372E-3,-1.927001E-2,-3.2036766E-2,1.8941083E-3,-2.0498656E-2,2.3192128E-2],"categories":[],"categories_nodes":[],"categories_segments":[],"categories_sizes":[],"default_left":[0,0,0,0,1,0,0,0,0,0,0,0,0,0,0,0,0,0,0,0,0,0,0,0,0,0,0,0,0,0,0],"id":22,"left_children":[1,3,-1,-1,5,7,9,11,13,15,17,19,21,23,25,-1,-1,27,29,-1,-1,-1,-1,-1,-1,-1,-1,-1,-1,-1,-1],"loss_changes":[5.995636E-1,5.624542E-1,0E0,0E0,4.3518066E-1,4.6855164E-1,1.5671587E0,2.2230244E0,1.8963623E-1,1.4621534E0,9.089203E-1,7.527504E-1,1.4818169E0,9.222412E-2,1.7059295E-1,0E0,0E0,5.939307E-1,9.1800076E-1,0E0,0E0,0E0,0E0,0E0,0E0,0E0,0E0,0E0,0E0,0E0,0E0],"parents":[2147483647,0,0,1,1,4,4,5,5,6,6,7,7,8,8,9,9,10,10,11,11,12,12,13,13,14,14,17,17,18,18],"right_children":[2,4,-1,-1,6,8,10,12,14,16,18,20,22,24,26,-1,-1,28,30,-1,-1,-1,-1,-1,-1,-1,-1,-1,-1,-1,-1],"split_conditions":[9.4E1,9E0,2.6651807E-3,1.6862303E-3,2.09E2,4.05E1,-7.3E-1,1E0,1E0,-8.7E-1,7.1E-1,3.74E2,-1.15E2,5.312E3,-3E0,-2.0521503E-2,3.2751765E-2,1.12E2,4.5E1,-2.8381852E-2,-2.7293721E-3,-1.860953E-2,3.971469E-2,-2.7670318E-2,-3.189517E-2,2.2453372E-3,-1.927001E-2,-3.2036766E-2,1.8941083E-3,-2.0498656E-2,2.3192128E-2],"split_indices":[76,76,0,0,109,90,127,77,127,127,127,85,89,82,75,0,0,89,76,0,0,0,0,0,0,0,0,0,0,0,0],"split_type":[0,0,0,0,0,0,0,0,0,0,0,0,0,0,0,0,0,0,0,0,0,0,0,0,0,0,0,0,0,0,0],"sum_hessian":[6.767103E2,6.7548126E2,1.2290285E0,1.2715893E0,6.742097E2,6.4808124E2,2.6128452E1,8.339034E1,5.646909E2,3.2396026E0,2.2888851E1,8.08127E1,2.5776446E0,5.622125E2,2.478374E0,1.542217E0,1.6973854E0,2.0065834E1,2.8230176E0,7.7611755E1,3.2009366E0,1.1850668E0,1.3925778E0,7.796553E1,4.84247E2,1.2537234E0,1.2246507E0,1.8802004E1,1.2638291E0,1.5406868E0,1.2823306E0],"tree_param":{"num_deleted":"0","num_feature":"128","num_nodes":"31","size_leaf_vector":"1"}},{"base_weights":[2.3554517E-1,2.53564E-1,5.877424E-2,2.4293251E-1,5.8630484E-1,2.3597176E-1,-2.3173293E-1,1.6741158E-1,2.8062817E-1,6.7391515E-2,7.7284545E-1,3.5451835E-1,-2.0646995E-1,-4.844821E-1,9.3782656E-2,1.8089871E-1,-2.6883382E-2,2.914408E-1,-1.9025093E-2,4.8480257E-1,-2.4161339E-2,3.5340283E-3,8.8341135E-1,-3.0905244E-1,4.2691183E-1,-4.644084E-1,2.1608903E-1,1.682857E-2,-5.850604E-1,-3.9349428E-1,3.824301E-1,1.9143283E-1,-2.4925932E-2,4.0579546E-2,2.8187835E-1,2.2838669E-1,-3.5815862E-1,-4.611921E-4,3.5069853E-2,4.867733E-2,9.720344E-3,-5.6218264E-6,-2.2121208E-2,-2.0859538E-2,4.8167142E-1,-2.8560972E-2,-2.3027796E-4,-2.127446E-2,3.5018817E-2,-3.2143157E-2,8.115981E-4,-2.5683641E-2,-1.9039394E-4,-2.051556E-2,6.086057E-1,1.0394711E-2,-1.386939E-2,4.632437E-3,1.5105151E-2,2.2210147E-2,-2.2697821E-2,-2.703762E-2,-3.6175962E-4,3.190062E-2,1.0869704E-2,3.8740292E-2,-2.9902977E-3],"categories":[],"categories_nodes":[],"categories_segments":[],"categories_sizes":[],"default_left":[0,0,0,0,0,0,0,0,0,1,0,0,0,0,0,0,0,0,0,0,0,0,0,0,0,0,0,0,0,0,0,0,0,0,0,0,0,0,0,0,0,0,0,0,0,0,0,0,0,0,0,0,0,0,0,0,0,0,0,0,0,0,0,0,0,0,0],"id":23,"left_children":[1,3,5,7,9,11,13,15,17,19,21,23,25,27,29,31,-1,33,35,37,-1,-1,39,41,43,45,47,-1,49,51,53,55,-1,-1,57,59,61,-1,-1,-1,-1,-1,-1,-1,63,-1,-1,-1,-1,-1,-1,-1,-1,-1,65,-1,-1,-1,-1,-1,-1,-1,-1,-1,-1,-1,-1],"loss_changes":[2.4531326E0,2.3439713E0,3.81137E0,1.8968544E0,1.9859676E0,2.4766858E0,2.3617184E0,2.2827501E0,1.47649E0,1.7656361E0,1.1325006E0,1.8857636E0,1.2246782E0,1.5190403E0,1.9990839E0,1.7147627E0,0E0,1.9509926E0,1.4872079E0,4.6541536E-1,0E0,0E0,6.3117313E-1,1.7182359E-1,1.7419071E0,3.2754862E-1,1.7249188E0,0E0,5.188575E-1,2.5010204E-1,1.8205472E0,1.7827034E0,0E0,0E0,1.6247826E0,1.7177284E0,4.7375655E-1,0E0,0E0,0E0,0E0,0E0,0E0,0E0,1.1739883E0,0E0,0E0,0E0,0E0,0E0,0E0,0E0,0E0,0E0,8.482897E-1,0E0,0E0,0E0,0E0,0E0,0E0,0E0,0E0,0E0,0E0,0E0,0E0],"parents":[2147483647,0,0,1,1,2,2,3,3,4,4,5,5,6,6,7,7,8,8,9,9,10,10,11,11,12,12,13,13,14,14,15,15,17,17,18,18,19,19,22,22,23,23,24,24,25,25,26,26,28,28,29,29,30,30,31,31,34,34,35,35,36,36,44,44,54,54],"right_children":[2,4,6,8,10,12,14,16,18,20,22,24,26,28,30,32,-1,34,36,38,-1,-1,40,42,44,46,48,-1,50,52,54,56,-1,-1,58,60,62,-1,-1,-1,-1,-1,-1,-1,64,-1,-1,-1,-1,-1,-1,-1,-1,-1,66,-1,-1,-1,-1,-1,-1,-1,-1,-1,-1,-1,-1],"split_conditions":[1.03E2,1E0,5E1,1.8669E4,5E0,2.0221006E9,1.2E1,9.5E-1,1E0,8E0,7.4E1,-1.12E2,1.8E-1,-1.24E2,1.57E2,1.866E4,-2.6883382E-2,-1.15E2,4.7E1,-1.08E2,-2.4161339E-2,3.5340283E-3,2.023103E9,1E0,6E0,-1.04E2,-4.2E-1,1.682857E-2,1E0,1.6E1,-4.5E-1,1E0,-2.4925932E-2,4.0579546E-2,3E0,-1.03E2,-1.08E2,-4.611921E-4,3.5069853E-2,4.867733E-2,9.720344E-3,-5.6218264E-6,-2.2121208E-2,-2.0859538E-2,2.7E2,-2.8560972E-2,-2.3027796E-4,-2.127446E-2,3.5018817E-2,-3.2143157E-2,8.115981E-4,-2.5683641E-2,-1.9039394E-4,-2.051556E-2,1E0,1.0394711E-2,-1.386939E-2,4.632437E-3,1.5105151E-2,2.2210147E-2,-2.2697821E-2,-2.703762E-2,-3.6175962E-4,3.190062E-2,1.0869704E-2,3.8740292E-2,-2.9902977E-3],"split_indices":[89,26,76,80,74,78,74,126,46,95,94,92,126,88,85,80,0,91,76,89,0,0,78,93,83,91,127,0,77,74,127,30,0,0,74,92,92,0,0,0,0,0,0,0,85,0,0,0,0,0,0,0,0,0,93,0,0,0,0,0,0,0,0,0,0,0,0],"split_type":[0,0,0,0,0,0,0,0,0,0,0,0,0,0,0,0,0,0,0,0,0,0,0,0,0,0,0,0,0,0,0,0,0,0,0,0,0,0,0,0,0,0,0,0,0,0,0,0,0,0,0,0,0,0,0,0,0,0,0,0,0,0,0,0,0,0,0],"sum_hessian":[7.7384296E2,7.018652E2,7.197777E1,6.818106E2,2.0054598E1,4.4824425E1,2.7153345E1,2.2882164E2,4.5298892E2,5.6629195E0,1.4391679E1,3.5508976E1,9.315452E0,1.5010201E1,1.2143145E1,2.2525626E2,3.5653849E0,4.3723904E2,1.5749881E1,3.2890768E0,2.3738427E0,2.1808896E0,1.2210789E1,3.1712942E0,3.233768E1,5.7229877E0,3.5924642E0,1.3820138E0,1.3628188E1,4.3821807E0,7.7609634E0,2.2252434E2,2.7319179E0,6.379042E0,4.3086002E2,9.295206E0,6.4546747E0,1.2943141E0,1.9947627E0,1.0432977E1,1.777812E0,1.2580382E0,1.9132559E0,1.5668335E0,3.0770847E1,4.447525E0,1.2754626E0,1.5975112E0,1.9949529E0,1.2369922E1,1.2582657E0,3.1060967E0,1.276084E0,1.5420344E0,6.2189293E0,2.155137E2,7.0106344E0,4.214228E1,3.8871774E2,7.326829E0,1.9683769E0,3.8897855E0,2.5648892E0,1.8444996E1,1.23258505E1,4.8530474E0,1.3658819E0],"tree_param":{"num_deleted":"0","num_feature":"128","num_nodes":"67","size_leaf_vector":"1"}},{"base_weights":[2.6687914E-1,7.620984E-1,-3.4023517E-1,5.16763E-1,9.869829E-1,8.9331195E-2,-5.536687E-1,8.5943717E-1,-3.8781938E-1,5.0288524E-2,6.6164696E-1,7.573234E-1,-3.360678E-2,-6.6037214E-1,-2.7104682E-1,9.816586E-1,5.9926933E-1,-6.2171096E-1,1.5311341E-1,-2.5664989E-2,4.694921E-2,2.7965072E-1,9.610872E-1,-3.3546306E-2,-4.7298843E-1,5.032445E-1,-6.4184034E-1,9.9624467E-1,4.3530986E-1,9.1464114E-1,-3.1651366E-1,-1.9080916E-1,-3.3100586E-2,8.409897E-1,-5.345029E-1,8.7324905E-1,-4.5260873E-1,1.2982289E-2,9.79684E-1,1.1630542E-2,-3.0584285E-2,9.0631145E-1,5.6564145E-2,5.042627E-4,-3.3074558E-2,1.4754878E-2,5.0184436E-2,3.434423E-2,-3.1656462E-3,1.6450865E-2,4.9474493E-2,-3.0822817E-2,4.2413804E-3,1.7746808E-2,-2.5420919E-2,1.4124229E-2,4.533183E-2,1.1299654E-3,-3.1093627E-2,4.6677705E-2,1.3636911E-2,-3.0494748E-2,2.4664374E-3,4.990094E-2,1.4106983E-2,4.7934886E-2,1.5760459E-2,-2.5060078E-2,4.4028297E-2],"categories":[],"categories_nodes":[],"categories_segments":[],"categories_sizes":[],"default_left":[0,0,0,0,0,0,0,0,0,0,0,0,0,0,0,0,0,0,0,0,0,0,0,0,0,0,0,0,0,0,1,1,0,0,0,0,0,0,0,0,0,0,0,0,0,0,0,0,0,0,0,0,0,0,0,0,0,0,0,0,0,0,0,0,0,0,0,0,0],"id":24,"left_children":[1,3,5,7,9,11,13,15,17,-1,19,21,-1,23,25,27,29,31,33,-1,-1,35,37,-1,39,41,43,45,47,49,51,53,-1,55,57,59,61,-1,63,-1,-1,65,67,-1,-1,-1,-1,-1,-1,-1,-1,-1,-1,-1,-1,-1,-1,-1,-1,-1,-1,-1,-1,-1,-1,-1,-1,-1,-1],"loss_changes":[2.3282123E2,2.3011292E1,3.1973015E1,6.418591E1,6.8740845E-1,5.9735516E1,6.840103E0,4.172142E0,7.342696E0,0E0,5.371965E0,5.814125E0,0E0,1.5434265E-2,1.912466E1,3.6554718E-1,1.4850716E1,5.7159805E-1,9.008005E0,0E0,0E0,9.131208E0,3.1173706E-1,0E0,1.3520353E0,3.8675833E0,5.7959366E-1,2.0960236E-1,5.934101E-1,1.3295727E0,1.6964166E0,1.019779E0,0E0,8.977795E-2,4.8425508E-1,1.5971851E-1,7.924603E-1,0E0,2.5450897E-1,0E0,0E0,5.0048828E-2,5.6767044E0,0E0,0E0,0E0,0E0,0E0,0E0,0E0,0E0,0E0,0E0,0E0,0E0,0E0,0E0,0E0,0E0,0E0,0E0,0E0,0E0,0E0,0E0,0E0,0E0,0E0,0E0],"parents":[2147483647,0,0,1,1,2,2,3,3,4,4,5,5,6,6,7,7,8,8,10,10,11,11,13,13,14,14,15,15,16,16,17,17,18,18,21,21,22,22,24,24,25,25,26,26,27,27,28,28,29,29,30,30,31,31,33,33,34,34,35,35,36,36,38,38,41,41,42,42],"right_children":[2,4,6,8,10,12,14,16,18,-1,20,22,-1,24,26,28,30,32,34,-1,-1,36,38,-1,40,42,44,46,48,50,52,54,-1,56,58,60,62,-1,64,-1,-1,66,68,-1,-1,-1,-1,-1,-1,-1,-1,-1,-1,-1,-1,-1,-1,-1,-1,-1,-1,-1,-1,-1,-1,-1,-1,-1,-1],"split_conditions":[3E0,-1.2E2,7E0,-4E0,2E0,-1.79E2,3.1E2,2.36E2,-1.52E2,5.0288524E-2,1.12E2,1.98E2,-3.360678E-2,2.8E2,1.4E1,1E0,-1E1,-3E0,-2E0,-2.5664989E-2,4.694921E-2,4E0,5.08E3,-3.3546306E-2,9E0,1E1,5.101E3,-9.5E-1,5E0,-1.35E1,1.3911E4,9.495E3,-3.3100586E-2,4.012202E8,-1.12E2,1E0,1.93E2,1.2982289E-2,1E0,1.1630542E-2,-3.0584285E-2,9E0,4.91E2,5.042627E-4,-3.3074558E-2,1.4754878E-2,5.0184436E-2,3.434423E-2,-3.1656462E-3,1.6450865E-2,4.9474493E-2,-3.0822817E-2,4.2413804E-3,1.7746808E-2,-2.5420919E-2,1.4124229E-2,4.533183E-2,1.1299654E-3,-3.1093627E-2,4.6677705E-2,1.3636911E-2,-3.0494748E-2,2.4664374E-3,4.990094E-2,1.4106983E-2,4.7934886E-2,1.5760459E-2,-2.5060078E-2,4.4028297E-2],"split_indices":[75,85,75,75,75,86,85,86,85,0,85,85,0,85,75,68,75,75,75,0,0,75,82,0,75,75,82,126,74,87,80,80,0,81,91,4,85,0,45,0,0,75,85,0,0,0,0,0,0,0,0,0,0,0,0,0,0,0,0,0,0,0,0,0,0,0,0,0,0],"split_type":[0,0,0,0,0,0,0,0,0,0,0,0,0,0,0,0,0,0,0,0,0,0,0,0,0,0,0,0,0,0,0,0,0,0,0,0,0,0,0,0,0,0,0,0,0,0,0,0,0,0,0,0,0,0,0,0,0,0,0,0,0,0,0,0,0,0,0,0,0],"sum_hessian":[7.725184E2,4.2532678E2,3.4719162E2,2.0499142E2,2.2033537E2,1.15437706E2,2.317539E2,1.487078E2,5.628363E1,2.0632881E2,1.4006558E1,6.149608E1,5.3941624E1,1.6726622E2,6.4487686E1,9.9290184E1,4.941761E1,3.9189373E1,1.7094257E1,2.5123034E0,1.1494255E1,1.9098026E1,4.2398052E1,1.5590475E2,1.1361455E1,2.0766293E1,4.3721397E1,9.590627E1,3.383909E0,3.6759754E1,1.2657856E1,3.8422358E0,3.5347137E1,8.434009E0,8.660249E0,1.0441332E1,8.656694E0,1.4814627E0,4.0916588E1,1.7551764E0,9.606278E0,1.0375159E1,1.0391133E1,1.2935655E0,4.242783E1,1.4344923E0,9.447178E1,1.9981835E0,1.3857255E0,4.7773147E0,3.1982439E1,6.937283E0,5.7205734E0,1.3702395E0,2.4719963E0,1.4448365E0,6.9891725E0,1.2745526E0,7.385696E0,8.984484E0,1.4568483E0,6.427503E0,2.2291918E0,3.944892E1,1.4676677E0,8.959266E0,1.4158928E0,6.4302516E0,3.9608815E0],"tree_param":{"num_deleted":"0","num_feature":"128","num_nodes":"69","size_leaf_vector":"1"}},{"base_weights":[-5.935347E-1,-5.94842E-1,2.8712898E-3,1.7742794E-3,-5.961263E-1,-6.015425E-1,-3.9040977E-1,-6.028984E-1,2.2848973E-3,-5.062956E-1,8.975005E-2,-5.634334E-1,-6.307957E-1,-3.1102974E-2,1.4954919E-2,4.105276E-2,-2.3302222E-2,-2.8711248E-2,-1.289289E-2,-3.1775087E-2,-1.8246893E-2],"categories":[],"categories_nodes":[],"categories_segments":[],"categories_sizes":[],"default_left":[0,0,0,0,0,0,0,1,0,0,0,0,0,0,0,0,0,0,0,0,0],"id":25,"left_children":[1,3,-1,-1,5,7,9,11,-1,13,15,17,19,-1,-1,-1,-1,-1,-1,-1,-1],"loss_changes":[5.892029E-1,5.4811096E-1,0E0,0E0,4.890442E-1,5.8151245E-1,1.1313682E0,3.381195E-1,0E0,1.6658883E0,2.2701287E0,7.430954E-1,2.193451E-1,0E0,0E0,0E0,0E0,0E0,0E0,0E0,0E0],"parents":[2147483647,0,0,1,1,4,4,5,5,6,6,7,7,9,9,10,10,11,11,12,12],"right_children":[2,4,-1,-1,6,8,10,12,-1,14,16,18,20,-1,-1,-1,-1,-1,-1,-1,-1],"split_conditions":[9.4E1,9E0,2.8712898E-3,1.7742794E-3,1.07E2,1E0,5.8955E4,5.306E3,2.2848973E-3,1E0,5.8993E4,1E0,6.25E2,-3.1102974E-2,1.4954919E-2,4.105276E-2,-2.3302222E-2,-2.8711248E-2,-1.289289E-2,-3.1775087E-2,-1.8246893E-2],"split_indices":[76,76,0,0,89,5,79,82,0,40,79,2,85,0,0,0,0,0,0,0,0],"split_type":[0,0,0,0,0,0,0,0,0,0,0,0,0,0,0,0,0,0,0,0,0],"sum_hessian":[6.511855E2,6.499664E2,1.2191098E0,1.2675071E0,6.486989E2,6.3018317E2,1.851573E1,6.289341E2,1.2490857E0,1.4871972E1,3.6437583E0,2.6924384E2,3.5969022E2,1.3202005E1,1.6699665E0,1.3673534E0,2.2764049E0,2.5921057E2,1.003328E1,3.5206778E2,7.6224437E0],"tree_param":{"num_deleted":"0","num_feature":"128","num_nodes":"21","size_leaf_vector":"1"}},{"base_weights":[2.376693E-1,-2.6518396E-1,8.284712E-1,-5.428858E-1,9.387919E-2,5.004514E-2,5.886461E-1,-6.554093E-1,-8.524874E-2,-6.1698455E-1,7.424396E-1,-1.5256217E-1,9.403028E-1,-3.3675626E-2,-4.2138705E-1,-5.729552E-1,7.797539E-1,-1.0664429E-1,-3.377564E-2,5.0220825E-2,4.323627E-1,-3.2692365E-2,1.9073036E-1,9.99917E-1,5.7617295E-1,-3.1779006E-2,3.774605E-2,-9.915689E-2,-3.2746922E-2,-2.5220895E-3,8.529949E-1,-2.9387278E-2,3.9761752E-2,-2.9429525E-1,9.003051E-1,6.544247E-1,-5.031512E-1,5.0462384E-2,1.3661036E-2,-2.9077214E-1,4.7485154E-2,-2.6481856E-2,2.6244555E-2,4.6425022E-2,1.4314047E-2,-3.2138556E-2,6.5798215E-3,4.8593964E-2,2.0308739E-2,4.8606824E-2,1.0859447E-2,-9.484738E-4,-3.158985E-2,-2.788042E-2,1.55151775E-2],"categories":[],"categories_nodes":[],"categories_segments":[],"categories_sizes":[],"default_left":[0,0,0,0,0,0,0,0,0,0,0,0,0,0,0,0,0,0,0,0,0,0,0,0,0,0,0,0,0,0,0,0,0,0,0,0,0,0,0,1,0,0,0,0,0,0,0,0,0,0,0,0,0,0,0],"id":26,"left_children":[1,3,5,7,9,-1,11,13,15,17,19,21,23,-1,25,27,29,31,-1,-1,33,-1,35,37,39,-1,-1,41,-1,-1,43,-1,-1,45,47,49,51,-1,-1,53,-1,-1,-1,-1,-1,-1,-1,-1,-1,-1,-1,-1,-1,-1,-1],"loss_changes":[2.2995499E2,4.1780388E1,1.4124207E1,1.21037445E1,8.4996315E1,0E0,3.9565403E1,5.1852417E-1,2.0591452E1,2.5572548E0,7.391567E0,8.647687E0,1.6535873E0,0E0,4.5789957E0,1.1435347E0,1.1156044E0,4.9122725E0,0E0,0E0,1.5863918E1,0E0,1.0036479E1,3.1352997E-1,5.71987E0,0E0,0E0,1.827425E0,0E0,0E0,4.3019295E-1,0E0,0E0,2.8633876E0,6.0087204E-1,2.3614879E0,7.7600074E-1,0E0,0E0,1.1076982E0,0E0,0E0,0E0,0E0,0E0,0E0,0E0,0E0,0E0,0E0,0E0,0E0,0E0,0E0,0E0],"parents":[2147483647,0,0,1,1,2,2,3,3,4,4,6,6,7,7,8,8,9,9,10,10,11,11,12,12,14,14,15,15,16,16,17,17,20,20,22,22,23,23,24,24,27,27,30,30,33,33,34,34,35,35,36,36,39,39],"right_children":[2,4,6,8,10,-1,12,14,16,18,20,22,24,-1,26,28,30,32,-1,-1,34,-1,36,38,40,-1,-1,42,-1,-1,44,-1,-1,46,48,50,52,-1,-1,54,-1,-1,-1,-1,-1,-1,-1,-1,-1,-1,-1,-1,-1,-1,-1],"split_conditions":[4E0,-3E0,6E0,2.36E2,-1.31E2,5.004514E-2,1.1E1,2.03E2,-9E0,3E0,-3E0,7E0,1.35E1,-3.3675626E-2,-5E0,-1.35E1,-1.13E2,3E0,-3.377564E-2,5.0220825E-2,-1E0,-3.2692365E-2,8.5E0,1.04E2,1.7E1,-3.1779006E-2,3.774605E-2,1E2,-3.2746922E-2,-2.5220895E-3,6.714E3,-2.9387278E-2,3.9761752E-2,-2E0,4.9E-1,7E0,6E0,5.0462384E-2,1.3661036E-2,5.843E3,4.7485154E-2,-2.6481856E-2,2.6244555E-2,4.6425022E-2,1.4314047E-2,-3.2138556E-2,6.5798215E-3,4.8593964E-2,2.0308739E-2,4.8606824E-2,1.0859447E-2,-9.484738E-4,-3.158985E-2,-2.788042E-2,1.55151775E-2],"split_indices":[75,75,87,86,86,0,75,86,75,87,87,75,87,0,75,87,88,75,0,0,75,0,87,88,75,0,0,88,0,0,82,0,0,75,126,87,95,0,0,82,0,0,0,0,0,0,0,0,0,0,0,0,0,0,0],"split_type":[0,0,0,0,0,0,0,0,0,0,0,0,0,0,0,0,0,0,0,0,0,0,0,0,0,0,0,0,0,0,0,0,0,0,0,0,0,0,0,0,0,0,0,0,0,0,0,0,0,0,0,0,0,0,0],"sum_hessian":[7.722938E2,4.1749747E2,3.5479636E2,2.3513249E2,1.8236497E2,2.0455212E2,1.5024425E2,1.8838127E2,4.675123E1,8.7026764E1,9.533822E1,4.8527023E1,1.0171722E2,1.731119E2,1.5269374E1,3.0111416E1,1.6639814E1,9.244123E0,7.778264E1,5.0463512E1,4.4874702E1,1.9356907E1,2.9170118E1,8.5906784E1,1.5810431E1,1.33061495E1,1.9632246E0,4.76765E0,2.5343765E1,1.3742149E0,1.52656E1,6.255487E0,2.988636E0,1.7723436E1,2.7151266E1,1.7519424E1,1.1650693E1,8.4433846E1,1.472939E0,4.827529E0,1.0982902E1,2.9109256E0,1.8567245E0,1.2907493E1,2.3581078E0,9.467577E0,8.255859E0,2.287151E1,4.2797575E0,9.438031E0,8.081393E0,2.6866097E0,8.964084E0,3.393406E0,1.4341233E0],"tree_param":{"num_deleted":"0","num_feature":"128","num_nodes":"55","size_leaf_vector":"1"}},{"base_weights":[2.7130398E-1,6.45368E-1,-4.7896412E-1,8.8468057E-1,3.2635513E-1,-1.6979553E-1,-6.423977E-1,5.0735927E-1,9.3863624E-1,-3.9683905E-1,7.5129104E-1,8.466633E-1,-4.9584374E-1,-6.4726573E-1,5.0881763E-6,8.479101E-1,-4.548455E-1,4.8171327E-2,7.5125444E-1,-3.287336E-2,-1.0387719E-2,3.799607E-1,9.1966987E-1,4.7089463E-1,4.724679E-2,-6.2447625E-1,-7.979182E-2,-3.285286E-2,-3.5631126E-1,3.1701347E-1,4.7042508E-2,-5.256128E-2,-3.0123202E-2,4.7633674E-2,-2.8573653E-2,7.864062E-1,-5.576427E-1,4.7449514E-2,-5.248074E-1,9.3438506E-1,-2.8231821E-3,4.22761E-2,-2.129763E-2,1.4007123E-3,-6.411014E-1,5.888596E-1,-3.0324241E-2,1.5650403E-2,-2.7760616E-2,4.073714E-2,-2.4866518E-2,-2.1539044E-2,1.9485071E-2,6.4462232E-3,4.3787558E-2,-7.912437E-3,-3.1761926E-2,1.9720867E-2,-3.3085067E-2,4.745531E-2,2.5822312E-2,-3.2911286E-2,-7.897201E-3,4.188258E-2,-2.0544333E-2],"categories":[],"categories_nodes":[],"categories_segments":[],"categories_sizes":[],"default_left":[0,0,0,0,0,0,1,0,0,0,0,0,0,0,0,0,0,0,0,0,0,0,0,0,0,0,0,0,0,0,0,0,0,0,0,0,0,0,0,0,0,0,0,0,0,1,0,0,0,0,0,0,0,0,0,0,0,0,0,0,0,0,0,0,0],"id":27,"left_children":[1,3,5,7,9,11,13,15,17,19,21,23,25,27,-1,29,31,-1,33,-1,35,37,39,41,-1,43,45,-1,47,49,-1,51,-1,-1,-1,53,55,-1,57,59,-1,-1,-1,-1,61,63,-1,-1,-1,-1,-1,-1,-1,-1,-1,-1,-1,-1,-1,-1,-1,-1,-1,-1,-1],"loss_changes":[2.142667E2,3.8582153E1,1.2735947E1,5.4345703E0,6.785181E1,3.0005325E1,5.190964E-1,1.3001069E1,4.507141E-1,8.2535095E0,8.329468E0,3.6929035E-1,3.6011772E0,2.3506927E-1,0E0,1.1219997E0,6.046312E-1,0E0,9.624668E0,0E0,1.5285521E1,2.3670818E1,1.4144592E0,2.5657182E0,0E0,5.8164024E-1,6.4347425E0,0E0,1.1784763E0,2.7546484E0,0E0,8.322704E-1,0E0,0E0,0E0,7.258539E-1,5.431738E-1,0E0,2.5288124E0,8.477783E-2,0E0,0E0,0E0,0E0,3.1562996E-1,2.3617015E0,0E0,0E0,0E0,0E0,0E0,0E0,0E0,0E0,0E0,0E0,0E0,0E0,0E0,0E0,0E0,0E0,0E0,0E0,0E0],"parents":[2147483647,0,0,1,1,2,2,3,3,4,4,5,5,6,6,7,7,8,8,9,9,10,10,11,11,12,12,13,13,15,15,16,16,18,18,20,20,21,21,22,22,23,23,25,25,26,26,28,28,29,29,31,31,35,35,36,36,38,38,39,39,44,44,45,45],"right_children":[2,4,6,8,10,12,14,16,18,20,22,24,26,28,-1,30,32,-1,34,-1,36,38,40,42,-1,44,46,-1,48,50,-1,52,-1,-1,-1,54,56,-1,58,60,-1,-1,-1,-1,62,64,-1,-1,-1,-1,-1,-1,-1,-1,-1,-1,-1,-1,-1,-1,-1,-1,-1,-1,-1],"split_conditions":[6E0,-3E0,-3.2E2,-3.05E2,1.12E2,1E1,2E1,-1E1,2.03E2,-2.5E0,1.54E2,8E0,1.35E1,1E0,5.0881763E-6,-1.35E1,-6E-1,4.8171327E-2,-6E0,-3.287336E-2,-1E0,3E0,1E0,8E0,4.724679E-2,2.3E1,1.7E1,-3.285286E-2,7E0,-1.6E1,4.7042508E-2,-3.75E2,-3.0123202E-2,4.7633674E-2,-2.8573653E-2,3.7E1,-1.21E2,4.7449514E-2,-1.79E2,1E0,-2.8231821E-3,4.22761E-2,-2.129763E-2,1.4007123E-3,8.1E-1,1.9713E4,-3.0324241E-2,1.5650403E-2,-2.7760616E-2,4.073714E-2,-2.4866518E-2,-2.1539044E-2,1.9485071E-2,6.4462232E-3,4.3787558E-2,-7.912437E-3,-3.1761926E-2,1.9720867E-2,-3.3085067E-2,4.745531E-2,2.5822312E-2,-3.2911286E-2,-7.897201E-3,4.188258E-2,-2.0544333E-2],"split_indices":[75,75,86,85,85,75,95,75,86,87,85,87,87,26,0,87,127,0,75,0,75,75,26,75,0,76,75,0,75,75,0,85,0,0,0,76,86,0,86,35,0,0,0,0,127,80,0,0,0,0,0,0,0,0,0,0,0,0,0,0,0,0,0,0,0],"split_type":[0,0,0,0,0,0,0,0,0,0,0,0,0,0,0,0,0,0,0,0,0,0,0,0,0,0,0,0,0,0,0,0,0,0,0,0,0,0,0,0,0,0,0,0,0,0,0,0,0,0,0,0,0,0,0,0,0,0,0,0,0,0,0,0,0],"sum_hessian":[7.613691E2,5.0815576E2,2.5321332E2,2.8933405E2,2.1882172E2,8.82704E1,1.6494292E2,3.749919E1,2.5183487E2,8.1012856E1,1.3780885E2,2.1050014E1,6.722039E1,1.6369522E2,1.2476897E0,2.7784332E1,9.714858E0,2.1875275E2,3.308211E1,4.796399E1,3.3048866E1,4.4009693E1,9.3799164E1,5.5645065E0,1.5485507E1,5.096299E1,1.6257399E1,1.5714845E2,6.5467806E0,4.796497E0,2.2987837E1,2.971931E0,6.7429276E0,2.895304E1,4.129073E0,1.3278538E1,1.9770327E1,2.6987656E1,1.7022038E1,9.244827E1,1.3508894E0,3.9653466E0,1.5991598E0,1.2492301E0,4.971376E1,7.1113324E0,9.146067E0,1.3683791E0,5.1784015E0,2.9766622E0,1.8198347E0,1.6159472E0,1.3559837E0,1.8808107E0,1.1397727E1,3.7106438E0,1.6059683E1,1.962554E0,1.50594845E1,8.8075066E1,4.3732104E0,4.766215E1,2.0516078E0,5.824109E0,1.2872232E0],"tree_param":{"num_deleted":"0","num_feature":"128","num_nodes":"65","size_leaf_vector":"1"}},{"base_weights":[-5.8573186E-1,-5.8702254E-1,2.8880574E-3,1.7809743E-3,-5.8829087E-1,-5.944601E-1,-4.2536542E-1,-5.957628E-1,-3.1300287E-3,-4.7315606E-1,-4.5159217E-2,-4.74186E-1,-6.031414E-1,-5.062749E-1,4.8681977E-3,-2.1562433E-2,2.283875E-2,-2.5834372E-2,1.6885128E-2,-3.0400112E-2,-2.1925041E-2,-3.105011E-2,-9.204925E-3],"categories":[],"categories_nodes":[],"categories_segments":[],"categories_sizes":[],"default_left":[0,0,0,0,1,0,0,0,0,0,0,0,0,0,0,0,0,0,0,0,0,0,0],"id":28,"left_children":[1,3,-1,-1,5,7,9,11,-1,13,15,17,19,21,-1,-1,-1,-1,-1,-1,-1,-1,-1],"loss_changes":[5.749359E-1,5.344238E-1,0E0,0E0,3.9938354E-1,3.9419556E-1,4.727106E-1,2.711792E-1,0E0,5.037117E-1,9.996192E-1,1.5622053E0,1.990509E-1,7.31802E-1,0E0,0E0,0E0,0E0,0E0,0E0,0E0,0E0,0E0],"parents":[2147483647,0,0,1,1,4,4,5,5,6,6,7,7,9,9,10,10,11,11,12,12,13,13],"right_children":[2,4,-1,-1,6,8,10,12,-1,14,16,18,20,22,-1,-1,-1,-1,-1,-1,-1,-1,-1],"split_conditions":[9.4E1,9E0,2.8880574E-3,1.7809743E-3,2.09E2,1E0,1.06E2,3E0,-3.1300287E-3,1E0,5.1E1,1E0,1E0,9.1E1,4.8681977E-3,-2.1562433E-2,2.283875E-2,-2.5834372E-2,1.6885128E-2,-3.0400112E-2,-2.1925041E-2,-3.105011E-2,-9.204925E-3],"split_indices":[76,76,0,0,109,5,88,95,0,67,76,40,60,94,0,0,0,0,0,0,0,0,0],"split_type":[0,0,0,0,0,0,0,0,0,0,0,0,0,0,0,0,0,0,0,0,0,0,0],"sum_hessian":[6.5042145E2,6.492071E2,1.2143772E0,1.2647014E0,6.479424E2,6.217509E2,2.61915E1,6.201119E2,1.6389998E0,2.3049751E1,3.1417487E0,3.9216244E1,5.808956E2,2.189155E1,1.1582011E0,1.8553972E0,1.2863513E0,3.761095E1,1.6052934E0,5.6162164E2,1.9274036E1,1.5459044E1,6.432505E0],"tree_param":{"num_deleted":"0","num_feature":"128","num_nodes":"23","size_leaf_vector":"1"}},{"base_weights":[2.2063284E-1,-2.4447648E-1,8.1306887E-1,-5.451096E-1,1.0913997E-1,5.839172E-1,4.849875E-2,-6.409864E-1,-1.3432793E-1,-5.8569306E-1,7.213055E-1,-4.512119E-1,8.0176556E-1,-3.316318E-2,-3.9304066E-1,-5.9083945E-1,6.860273E-1,-1.0840512E-1,-6.450056E-1,4.589266E-1,4.8231557E-2,-3.2562364E-2,1.23529665E-1,2.9754812E-1,9.1748816E-1,-3.149934E-2,3.8810633E-2,-6.183497E-1,